{"learner":{"attributes":{},"feature_names":[],"feature_types":[],"gradient_booster":{"model":{"cats":{"enc":[],"feature_segments":[],"sorted_idx":[]},"gbtree_model_param":{"num_parallel_tree":"1","num_trees":"300"},"iteration_indptr":[0,1,2,3,4,5,6,7,8,9,10,11,12,13,14,15,16,17,18,19,20,21,22,23,24,25,26,27,28,29,30,31,32,33,34,35,36,37,38,39,40,41,42,43,44,45,46,47,48,49,50,51,52,53,54,55,56,57,58,59,60,61,62,63,64,65,66,67,68,69,70,71,72,73,74,75,76,77,78,79,80,81,82,83,84,85,86,87,88,89,90,91,92,93,94,95,96,97,98,99,100,101,102,103,104,105,106,107,108,109,110,111,112,113,114,115,116,117,118,119,120,121,122,123,124,125,126,127,128,129,130,131,132,133,134,135,136,137,138,139,140,141,142,143,144,145,146,147,148,149,150,151,152,153,154,155,156,157,158,159,160,161,162,163,164,165,166,167,168,169,170,171,172,173,174,175,176,177,178,179,180,181,182,183,184,185,186,187,188,189,190,191,192,193,194,195,196,197,198,199,200,201,202,203,204,205,206,207,208,209,210,211,212,213,214,215,216,217,218,219,220,221,222,223,224,225,226,227,228,229,230,231,232,233,234,235,236,237,238,239,240,241,242,243,244,245,246,247,248,249,250,251,252,253,254,255,256,257,258,259,260,261,262,263,264,265,266,267,268,269,270,271,272,273,274,275,276,277,278,279,280,281,282,283,284,285,286,287,288,289,290,291,292,293,294,295,296,297,298,299,300],"tree_info":[0,0,0,0,0,0,0,0,0,0,0,0,0,0,0,0,0,0,0,0,0,0,0,0,0,0,0,0,0,0,0,0,0,0,0,0,0,0,0,0,0,0,0,0,0,0,0,0,0,0,0,0,0,0,0,0,0,0,0,0,0,0,0,0,0,0,0,0,0,0,0,0,0,0,0,0,0,0,0,0,0,0,0,0,0,0,0,0,0,0,0,0,0,0,0,0,0,0,0,0,0,0,0,0,0,0,0,0,0,0,0,0,0,0,0,0,0,0,0,0,0,0,0,0,0,0,0,0,0,0,0,0,0,0,0,0,0,0,0,0,0,0,0,0,0,0,0,0,0,0,0,0,0,0,0,0,0,0,0,0,0,0,0,0,0,0,0,0,0,0,0,0,0,0,0,0,0,0,0,0,0,0,0,0,0,0,0,0,0,0,0,0,0,0,0,0,0,0,0,0,0,0,0,0,0,0,0,0,0,0,0,0,0,0,0,0,0,0,0,0,0,0,0,0,0,0,0,0,0,0,0,0,0,0,0,0,0,0,0,0,0,0,0,0,0,0,0,0,0,0,0,0,0,0,0,0,0,0,0,0,0,0,0,0,0,0,0,0,0,0,0,0,0,0,0,0,0,0,0,0,0,0,0,0,0,0,0,0,0,0,0,0,0,0,0,0,0,0,0,0],"trees":[{"base_weights":[2.2092279E-2,2.7512375E-1,-7.1525604E-1,7.490825E-1,1.4863282E-1,-3.8803527E-1,-1.6948962E0,1.0453295E0,5.349664E-1,1.6069512E-1,-9.9293105E-2,-1.8601264E-1,-9.7639704E-1,-1.0741643E0,-1.8383965E0,5.5345725E-2,-1.0035024E-2,2.9905481E-2,-9.8955855E-2,5.868765E-3,3.0009342E-2,-6.219735E-3,-9.950394E-2,-2.8653575E-2,-9.1056064E-2,-8.301347E-2,1.1402156E-2,-7.24059E-2,-9.993642E-2],"categories":[],"categories_nodes":[],"categories_segments":[],"categories_sizes":[],"default_left":[0,0,0,0,0,0,0,0,0,0,0,0,0,0,0,0,0,0,0,0,0,0,0,0,0,0,0,0,0],"id":0,"left_children":[1,3,5,7,9,11,13,15,17,19,-1,21,23,25,27,-1,-1,-1,-1,-1,-1,-1,-1,-1,-1,-1,-1,-1,-1],"loss_changes":[7.9877188E3,1.9108218E3,3.5056997E3,4.2534814E2,6.4814166E2,9.745813E2,2.4195752E2,2.1630762E2,6.202279E2,4.7629138E2,0E0,6.7849976E2,7.1302185E2,3.946751E2,1.3620068E2,0E0,0E0,0E0,0E0,0E0,0E0,0E0,0E0,0E0,0E0,0E0,0E0,0E0,0E0],"parents":[2147483647,0,0,1,1,2,2,3,3,4,4,5,5,6,6,7,7,8,8,9,9,11,11,12,12,13,13,14,14],"right_children":[2,4,6,8,10,12,14,16,18,20,-1,22,24,26,28,-1,-1,-1,-1,-1,-1,-1,-1,-1,-1,-1,-1,-1,-1],"split_conditions":[1.501186E-2,1.113984E-2,5.611565E-2,9.93431E-3,8E0,5.354756E-1,1.547418E-2,1.473642E0,6.315789E-1,1.476512E-2,-9.9293105E-2,6.24975E-2,3.247477E-2,7.97114E-2,6.66031E-2,5.5345725E-2,-1.0035024E-2,2.9905481E-2,-9.8955855E-2,5.868765E-3,3.0009342E-2,-6.219735E-3,-9.950394E-2,-2.8653575E-2,-9.1056064E-2,-8.301347E-2,1.1402156E-2,-7.24059E-2,-9.993642E-2],"split_indices":[11,11,7,11,2,0,11,5,8,11,0,12,7,12,7,0,0,0,0,0,0,0,0,0,0,0,0,0,0],"split_type":[0,0,0,0,0,0,0,0,0,0,0,0,0,0,0,0,0,0,0,0,0,0,0,0,0,0,0,0,0],"sum_hessian":[4.2810934E4,3.1873662E4,1.093727E4,6.713479E3,2.5160184E4,8.199768E3,2.7375015E3,2.8149236E3,3.8985554E3,2.5019719E4,1.4046483E2,6.104883E3,2.094885E3,5.156153E2,2.2218862E3,2.6824546E3,1.3246884E2,3.8037825E3,9.477296E1,2.2776002E4,2.2437175E3,5.9042905E3,2.005923E2,1.4190282E3,6.7585675E2,3.5538608E2,1.602292E2,6.499104E2,1.5719758E3],"tree_param":{"num_deleted":"0","num_feature":"13","num_nodes":"29","size_leaf_vector":"1"}},{"base_weights":[3.741905E-2,2.82313E-1,-6.708881E-1,7.1039367E-1,1.3176407E-1,1.7213501E-1,-1.9150393E0,7.366964E-1,-9.9352226E-2,7.089256E-2,5.534102E-1,-8.4372723E-1,2.5931966E-1,-4.542521E-1,-9.7001486E-2,6.715086E-2,3.2430843E-2,4.5636264E-3,-9.9727206E-2,4.014169E-2,-1.6040413E-3,6.32504E-2,-5.9538215E-2,2.6868163E-2,-1.0786155E-3,8.9124106E-2,-9.915516E-2],"categories":[],"categories_nodes":[],"categories_segments":[],"categories_sizes":[],"default_left":[0,0,0,0,0,0,0,0,0,0,0,0,0,0,0,0,0,0,0,0,0,0,0,0,0,0,0],"id":1,"left_children":[1,3,5,7,9,11,13,15,-1,17,19,21,23,25,-1,-1,-1,-1,-1,-1,-1,-1,-1,-1,-1,-1,-1],"loss_changes":[7.516729E3,2.075146E3,1.1677455E4,5.958696E2,6.114299E2,5.880771E2,1.632832E2,4.4225928E2,0E0,8.765502E2,4.389098E2,3.8559927E2,4.7748056E2,2.666503E2,0E0,0E0,0E0,0E0,0E0,0E0,0E0,0E0,0E0,0E0,0E0,0E0,0E0],"parents":[2147483647,0,0,1,1,2,2,3,3,4,4,5,5,6,6,7,7,9,9,10,10,11,11,12,12,13,13],"right_children":[2,4,6,8,10,12,14,16,-1,18,20,22,24,26,-1,-1,-1,-1,-1,-1,-1,-1,-1,-1,-1,-1,-1],"split_conditions":[1.498236E-2,1.142433E-2,1.2043676E-1,7.460407E-2,1.465781E-2,1.522728E-2,1.501186E-2,8.82635E-3,-9.9352226E-2,1.5055841E0,4.083365E-2,-4E0,-6.027162E-1,2.3076923E-1,-9.7001486E-2,6.715086E-2,3.2430843E-2,4.5636264E-3,-9.9727206E-2,4.014169E-2,-1.6040413E-3,6.32504E-2,-5.9538215E-2,2.6868163E-2,-1.0786155E-3,8.9124106E-2,-9.915516E-2],"split_indices":[11,11,10,7,11,11,11,11,0,3,4,2,6,9,0,0,0,0,0,0,0,0,0,0,0,0,0],"split_type":[0,0,0,0,0,0,0,0,0,0,0,0,0,0,0,0,0,0,0,0,0,0,0,0,0,0,0],"sum_hessian":[4.3331957E4,3.219967E4,1.1132285E4,8.376802E3,2.382287E4,6.636397E3,4.495888E3,8.296628E3,8.01737E1,2.081854E4,3.0043284E3,5.238539E2,6.1125435E3,7.594258E1,4.4199453E3,1.050559E3,7.2460693E3,2.0616074E4,2.024661E2,2.1065505E3,8.977777E2,7.3654526E1,4.5019937E2,3.071388E3,3.0411555E3,3.0765806E1,4.5176777E1],"tree_param":{"num_deleted":"0","num_feature":"13","num_nodes":"27","size_leaf_vector":"1"}},{"base_weights":[2.7114432E-2,2.5023267E-1,-6.242799E-1,8.3203393E-1,1.6060412E-1,-3.2333958E-1,-1.5427198E0,4.0376732E-1,9.8818994E-1,1.7166401E-1,-9.4967924E-2,-1.7664918E-1,-1.1127675E0,2.9534036E-1,-1.6589111E0,4.362793E-2,-2.5961472E-2,-9.8588936E-2,5.0428595E-2,9.83448E-3,-2.396076E-2,-5.2315474E-2,-4.1746288E-3,-3.1630747E-2,-9.435647E-2,-9.10024E-2,4.905499E-2,-8.93799E-2,-1.1052751E-2],"categories":[],"categories_nodes":[],"categories_segments":[],"categories_sizes":[],"default_left":[0,0,0,0,0,0,0,0,0,0,0,0,0,0,0,0,0,0,0,0,0,0,0,0,0,0,0,0,0],"id":2,"left_children":[1,3,5,7,9,11,13,15,17,19,-1,21,23,25,27,-1,-1,-1,-1,-1,-1,-1,-1,-1,-1,-1,-1,-1,-1],"loss_changes":[6.262968E3,1.6736483E3,3.0382988E3,2.8613257E2,6.3402295E2,9.589009E2,5.7992236E2,4.9653326E2,1.913645E2,4.507497E2,0E0,5.658489E2,4.8128662E2,2.3702164E2,4.7180225E2,0E0,0E0,0E0,0E0,0E0,0E0,0E0,0E0,0E0,0E0,0E0,0E0,0E0,0E0],"parents":[2147483647,0,0,1,1,2,2,3,3,4,4,5,5,6,6,7,7,8,8,9,9,11,11,12,12,13,13,14,14],"right_children":[2,4,6,8,10,12,14,16,18,20,-1,22,24,26,28,-1,-1,-1,-1,-1,-1,-1,-1,-1,-1,-1,-1,-1,-1],"split_conditions":[1.501186E-2,1.046245E-2,5.611565E-2,1.519475E-2,8E0,5.652174E-1,-1.7508614E0,9.68377E-3,2.6666668E-1,1.4274321E0,-9.4967924E-2,1.531146E-2,5.281138E-1,6.1338454E-1,2.6087275E0,4.362793E-2,-2.5961472E-2,-9.8588936E-2,5.0428595E-2,9.83448E-3,-2.396076E-2,-5.2315474E-2,-4.1746288E-3,-3.1630747E-2,-9.435647E-2,-9.10024E-2,4.905499E-2,-8.93799E-2,-1.1052751E-2],"split_indices":[11,11,7,12,2,9,6,11,8,3,0,11,0,3,6,0,0,0,0,0,0,0,0,0,0,0,0,0,0],"split_type":[0,0,0,0,0,0,0,0,0,0,0,0,0,0,0,0,0,0,0,0,0,0,0,0,0,0,0,0,0],"sum_hessian":[4.309037E4,3.2096996E4,1.0993377E4,4.2834927E3,2.7813502E4,8.281255E3,2.7121226E3,1.145495E3,3.1379978E3,2.7665883E4,1.4762088E2,6.984608E3,1.2966465E3,1.6115932E2,2.5509634E3,7.59698E2,3.85797E2,2.0805294E1,3.1171924E3,2.6642217E4,1.0236654E3,6.748005E2,6.3098076E3,8.014899E2,4.9515656E2,3.904908E1,1.2211024E2,2.341186E3,2.0977719E2],"tree_param":{"num_deleted":"0","num_feature":"13","num_nodes":"29","size_leaf_vector":"1"}},{"base_weights":[1.3371838E-2,2.3841098E-1,-6.6404665E-1,8.196928E-1,1.4181158E-1,-3.6866507E-1,-1.5601044E0,-9.755079E-2,8.382067E-1,1.5236104E-1,-9.08505E-2,-4.4541046E-2,-6.32527E-1,2.5924084E-1,-1.6797671E0,6.2261086E-2,3.58232E-2,8.339681E-3,-5.654012E-2,-9.3129605E-2,2.6912994E-3,-5.8269065E-2,-1.4276761E-2,-8.7567724E-2,4.6307642E-2,-8.831468E-2,-2.8332142E-2],"categories":[],"categories_nodes":[],"categories_segments":[],"categories_sizes":[],"default_left":[0,0,0,0,0,0,0,0,0,0,0,0,0,0,0,0,0,0,0,0,0,0,0,0,0,0,0],"id":3,"left_children":[1,3,5,7,9,11,13,-1,15,17,-1,19,21,23,25,-1,-1,-1,-1,-1,-1,-1,-1,-1,-1,-1,-1],"loss_changes":[6.5020435E3,1.7976179E3,2.8144707E3,2.3565552E2,5.676141E2,6.8418164E2,5.744209E2,0E0,2.2369946E2,5.059254E2,0E0,6.423395E2,8.15058E2,2.2095563E2,2.3727441E2,0E0,0E0,0E0,0E0,0E0,0E0,0E0,0E0,0E0,0E0,0E0,0E0],"parents":[2147483647,0,0,1,1,2,2,3,3,4,4,5,5,6,6,8,8,9,9,11,11,12,12,13,13,14,14],"right_children":[2,4,6,8,10,12,14,-1,16,18,-1,20,22,24,26,-1,-1,-1,-1,-1,-1,-1,-1,-1,-1,-1,-1],"split_conditions":[1.501186E-2,1.050547E-2,5.577888E-2,2.631579E-1,8E0,2.003351E-2,-1.7508614E0,-9.755079E-2,8.82635E-3,1.5055841E0,-9.08505E-2,1.522728E-2,2.688195E-2,6.1338454E-1,2.6087275E0,6.2261086E-2,3.58232E-2,8.339681E-3,-5.654012E-2,-9.3129605E-2,2.6912994E-3,-5.8269065E-2,-1.4276761E-2,-8.7567724E-2,4.6307642E-2,-8.831468E-2,-2.8332142E-2],"split_indices":[11,11,7,8,2,7,6,0,11,3,0,11,12,3,6,0,0,0,0,0,0,0,0,0,0,0,0],"split_type":[0,0,0,0,0,0,0,0,0,0,0,0,0,0,0,0,0,0,0,0,0,0,0,0,0,0,0],"sum_hessian":[4.26495E4,3.2014797E4,1.0634701E4,4.5611045E3,2.7453693E4,7.9992085E3,2.6354934E3,2.958216E1,4.5315225E3,2.7307547E4,1.4614561E2,3.5902131E3,4.408995E3,1.6257314E2,2.4729202E3,1.041226E3,3.4902964E3,2.7004678E4,3.0286932E2,1.8335999E2,3.406853E3,1.7378799E3,2.6711155E3,4.0088608E1,1.22484535E2,2.2940127E3,1.7890738E2],"tree_param":{"num_deleted":"0","num_feature":"13","num_nodes":"27","size_leaf_vector":"1"}},{"base_weights":[-2.3742907E-2,1.7767309E-1,-6.0571086E-1,5.0467247E-1,7.2437026E-2,1.7836949E-1,-1.7648368E0,5.592442E-1,-8.514305E-1,1.05336905E-1,-1.0482723E0,-9.571909E-2,2.0940885E-1,-9.011803E-2,-8.577649E-2,-5.3878408E-2,2.925317E-2,-1.0213744E-1,1.2665172E-2,2.7720272E-3,2.6719013E-2,-1.3443351E-2,-9.6247725E-2,-2.2192525E-3,2.2947997E-2],"categories":[],"categories_nodes":[],"categories_segments":[],"categories_sizes":[],"default_left":[0,0,0,0,0,0,0,0,0,0,0,0,0,0,0,0,0,0,0,0,0,0,0,0,0],"id":4,"left_children":[1,3,5,7,9,11,13,15,17,19,21,-1,23,-1,-1,-1,-1,-1,-1,-1,-1,-1,-1,-1,-1],"loss_changes":[4.902406E3,1.0691499E3,9.773278E3,5.602815E2,8.668275E2,4.1711548E2,4.9365234E0,3.079707E2,3.8616534E2,4.888609E2,4.5761414E2,0E0,4.0044135E2,0E0,0E0,0E0,0E0,0E0,0E0,0E0,0E0,0E0,0E0,0E0,0E0],"parents":[2147483647,0,0,1,1,2,2,3,3,4,4,5,5,6,6,7,7,8,8,9,9,10,10,12,12],"right_children":[2,4,6,8,10,12,14,16,18,20,22,-1,24,-1,-1,-1,-1,-1,-1,-1,-1,-1,-1,-1,-1],"split_conditions":[1.501186E-2,1.142433E-2,1.2043676E-1,1.4962938E-1,1.4276253E0,7.909981E-1,7.982903E-1,2.857143E-1,1.8125232E-1,1.474393E-2,9.55554E-2,-9.571909E-2,1.638269E-2,-9.011803E-2,-8.577649E-2,-5.3878408E-2,2.925317E-2,-1.0213744E-1,1.2665172E-2,2.7720272E-3,2.6719013E-2,-1.3443351E-2,-9.6247725E-2,-2.2192525E-3,2.2947997E-2],"split_indices":[11,11,10,10,3,1,6,9,10,11,10,0,11,0,0,0,0,0,0,0,0,0,0,0,0],"split_type":[0,0,0,0,0,0,0,0,0,0,0,0,0,0,0,0,0,0,0,0,0,0,0,0,0],"sum_hessian":[4.1821184E4,3.1069047E4,1.0752136E4,7.5634346E3,2.3505611E4,6.414172E3,4.3379634E3,7.271409E3,2.920256E2,2.2836133E4,6.6947845E2,9.2856834E1,6.3213154E3,2.4431287E3,1.8948347E3,1.12285835E2,7.1591235E3,1.4009811E2,1.5192747E2,2.0458057E4,2.3780771E3,3.5509317E2,3.1438528E2,3.1344233E3,3.1868918E3],"tree_param":{"num_deleted":"0","num_feature":"13","num_nodes":"25","size_leaf_vector":"1"}},{"base_weights":[7.818549E-3,2.091033E-1,-4.4153464E-1,2.3051071E-1,-4.5669013E-1,-2.7773613E-1,-8.4104574E-1,-1.7891067E-1,2.5594452E-1,3.590388E-2,-1.5568798E0,-2.3453528E-1,-9.094646E-2,-5.4940856E-1,-1.4411076E0,3.4798365E-2,-2.2254037E-2,-1.14829345E-2,1.4191508E-2,-1.00476444E-1,2.0461073E-2,4.7766894E-2,-9.8575436E-2,-4.0711027E-2,-6.144993E-3,-4.2326104E-2,-2.0370812E-3,-7.601378E-2,3.3424053E-2],"categories":[],"categories_nodes":[],"categories_segments":[],"categories_sizes":[],"default_left":[0,0,0,0,0,0,0,0,0,0,0,0,0,0,0,0,0,0,0,0,0,0,0,0,0,0,0,0,0],"id":5,"left_children":[1,3,5,7,9,11,13,15,17,19,21,23,-1,25,27,-1,-1,-1,-1,-1,-1,-1,-1,-1,-1,-1,-1,-1,-1],"loss_changes":[3.8343862E3,4.174054E2,8.580044E2,2.9543396E2,4.9452808E2,6.1897095E2,6.664978E2,3.868001E2,3.617301E2,4.8280643E2,2.9583057E2,5.85584E2,0E0,3.8801093E2,2.0919287E2,0E0,0E0,0E0,0E0,0E0,0E0,0E0,0E0,0E0,0E0,0E0,0E0,0E0,0E0],"parents":[2147483647,0,0,1,1,2,2,3,3,4,4,5,5,6,6,7,7,8,8,9,9,10,10,11,11,13,13,14,14],"right_children":[2,4,6,8,10,12,14,16,18,20,22,24,-1,26,28,-1,-1,-1,-1,-1,-1,-1,-1,-1,-1,-1,-1,-1,-1],"split_conditions":[1.2632266E-1,6.4285713E-1,6.927492E-2,4.04132E-3,9.946803E-2,1.2165703E0,2.127218E-1,8.3609E-4,3.2142857E-1,3.971119E-2,-1.26066E0,2.091687E-2,-9.094646E-2,2.179433E-1,9.475797E-1,3.4798365E-2,-2.2254037E-2,-1.14829345E-2,1.4191508E-2,-1.00476444E-1,2.0461073E-2,4.7766894E-2,-9.8575436E-2,-4.0711027E-2,-6.144993E-3,-4.2326104E-2,-2.0370812E-3,-7.601378E-2,3.3424053E-2],"split_indices":[10,8,7,12,10,3,4,12,9,3,4,7,0,5,1,0,0,0,0,0,0,0,0,0,0,0,0,0,0],"split_type":[0,0,0,0,0,0,0,0,0,0,0,0,0,0,0,0,0,0,0,0,0,0,0,0,0,0,0,0,0],"sum_hessian":[4.2391273E4,2.9277256E4,1.3114017E4,2.8365857E4,9.1139984E2,9.301941E3,3.812076E3,1.658709E3,2.6707148E4,6.3020294E2,2.811969E2,9.049431E3,2.525104E2,2.5665957E3,1.2454803E3,3.8654715E2,1.2721619E3,1.4499727E3,2.5257176E4,9.659105E1,5.336119E2,3.9650753E1,2.4154614E2,1.4602983E3,7.5891323E3,1.6198016E3,9.46794E2,1.2007002E3,4.4780132E1],"tree_param":{"num_deleted":"0","num_feature":"13","num_nodes":"29","size_leaf_vector":"1"}},{"base_weights":[1.4665677E-2,2.0727386E-1,-5.390161E-1,7.343294E-1,1.23831995E-1,-2.5071615E-1,-1.227852E0,2.281963E-1,8.842725E-1,5.3422844E-1,7.13968E-2,-1.3475902E-1,-1.0256187E0,-2.5924223E-2,-1.4231386E0,1.9098079E-2,-1.0354736E-1,4.6754222E-2,-3.1965796E-3,1.0212003E-2,4.536944E-2,4.06351E-3,-8.5923076E-2,-1.2388042E-2,2.7595235E-2,-1.9076584E-2,-9.0889975E-2,-8.449744E-2,3.0580943E-2,-7.84088E-2,4.1187643E-3],"categories":[],"categories_nodes":[],"categories_segments":[],"categories_sizes":[],"default_left":[0,0,0,0,0,0,0,0,0,0,0,0,0,0,0,0,0,0,0,0,0,0,0,0,0,0,0,0,0,0,0],"id":6,"left_children":[1,3,5,7,9,11,13,15,17,19,21,23,25,27,29,-1,-1,-1,-1,-1,-1,-1,-1,-1,-1,-1,-1,-1,-1,-1,-1],"loss_changes":[4.532113E3,1.3865305E3,2.1778708E3,3.268291E2,5.857435E2,6.9474054E2,7.594829E2,3.494395E2,1.602107E2,3.7955048E2,4.2671515E2,5.221795E2,5.128251E2,4.819216E2,6.0793506E2,0E0,0E0,0E0,0E0,0E0,0E0,0E0,0E0,0E0,0E0,0E0,0E0,0E0,0E0,0E0,0E0],"parents":[2147483647,0,0,1,1,2,2,3,3,4,4,5,5,6,6,7,7,8,8,9,9,10,10,11,11,12,12,13,13,14,14],"right_children":[2,4,6,8,10,12,14,16,18,20,22,24,26,28,30,-1,-1,-1,-1,-1,-1,-1,-1,-1,-1,-1,-1,-1,-1,-1,-1],"split_conditions":[1.498236E-2,1.046245E-2,5.02379E-2,1.371056E-2,-1.1320624E0,5.7575756E-1,-1.0317847E0,3.210847E-2,1.473642E0,1.383043E-2,8E0,9.594817E-1,2.199252E-2,4.2746875E-1,2.6087275E0,1.9098079E-2,-1.0354736E-1,4.6754222E-2,-3.1965796E-3,1.0212003E-2,4.536944E-2,4.06351E-3,-8.5923076E-2,-1.2388042E-2,2.7595235E-2,-1.9076584E-2,-9.0889975E-2,-8.449744E-2,3.0580943E-2,-7.84088E-2,4.1187643E-3],"split_indices":[11,11,7,12,4,9,6,7,5,11,2,6,12,3,6,0,0,0,0,0,0,0,0,0,0,0,0,0,0,0,0],"split_type":[0,0,0,0,0,0,0,0,0,0,0,0,0,0,0,0,0,0,0,0,0,0,0,0,0,0,0,0,0,0,0],"sum_hessian":[4.249568E4,3.1528537E4,1.0967143E4,4.3082065E3,2.722033E4,7.732293E3,3.2348496E3,9.851965E2,3.32301E3,3.0828088E3,2.4137521E4,6.726854E3,1.0054389E3,4.5228848E2,2.782561E3,9.242191E2,6.097733E1,3.1540083E3,1.6900182E2,1.6368649E3,1.445944E3,2.400605E4,1.3147002E2,5.7768223E3,9.5003204E2,5.5537213E2,4.5006677E2,1.2482839E2,3.2746008E2,2.538014E3,2.4454729E2],"tree_param":{"num_deleted":"0","num_feature":"13","num_nodes":"31","size_leaf_vector":"1"}},{"base_weights":[6.8880124E-3,1.8928027E-1,-5.331089E-1,8.148001E-1,1.2845236E-1,-2.8146523E-1,-1.3432796E0,8.8026685E-1,-9.276687E-1,1.858745E-1,-1.5936594E-1,-2.3683213E-1,-8.572071E-2,-1.4543492E0,3.9484974E-2,3.3221018E-2,6.087398E-2,8.82667E-2,-1.0558075E-1,1.3271967E-2,-1.367249E-3,-2.0881873E-2,9.363945E-3,-1.3978891E-2,5.9955448E-2,-1.5947944E-2,-7.9131745E-2,4.4774566E-2,-8.414813E-2],"categories":[],"categories_nodes":[],"categories_segments":[],"categories_sizes":[],"default_left":[0,0,0,0,0,0,0,0,0,0,0,0,0,0,0,0,0,0,0,0,0,0,0,0,0,0,0,0,0],"id":7,"left_children":[1,3,5,7,9,11,13,15,17,19,21,23,-1,25,27,-1,-1,-1,-1,-1,-1,-1,-1,-1,-1,-1,-1,-1,-1],"loss_changes":[4.157275E3,1.2004297E3,2.1723672E3,3.1978394E2,4.7530283E2,5.197453E2,3.8792383E2,1.9537964E2,3.2810492E2,4.067301E2,4.28344E2,4.8452322E2,0E0,3.399912E2,2.7979852E2,0E0,0E0,0E0,0E0,0E0,0E0,0E0,0E0,0E0,0E0,0E0,0E0,0E0,0E0],"parents":[2147483647,0,0,1,1,2,2,3,3,4,4,5,5,6,6,7,7,8,8,9,9,10,10,11,11,13,13,14,14],"right_children":[2,4,6,8,10,12,14,16,18,20,22,24,-1,26,28,-1,-1,-1,-1,-1,-1,-1,-1,-1,-1,-1,-1,-1,-1],"split_conditions":[1.501186E-2,9.93431E-3,5.611565E-2,1.473642E0,8.6550903E-1,6.0864204E-1,2.6655233E0,5.0573725E-1,8.3609E-4,4.478795E-2,1.7328337E0,2.0886154E0,-8.572071E-2,-1.1541605E0,8.330758E-2,3.3221018E-2,6.087398E-2,8.82667E-2,-1.0558075E-1,1.3271967E-2,-1.367249E-3,-2.0881873E-2,9.363945E-3,-1.3978891E-2,5.9955448E-2,-1.5947944E-2,-7.9131745E-2,4.4774566E-2,-8.414813E-2],"split_indices":[11,11,7,5,4,0,6,3,12,7,4,6,0,6,7,0,0,0,0,0,0,0,0,0,0,0,0,0,0],"split_type":[0,0,0,0,0,0,0,0,0,0,0,0,0,0,0,0,0,0,0,0,0,0,0,0,0,0,0,0,0],"sum_hessian":[4.220756E4,3.155128E4,1.065628E4,2.795149E3,2.875613E4,8.131834E3,2.5244465E3,2.6944111E3,1.00737625E2,2.397356E4,4.78257E3,7.8873267E3,2.4450705E2,2.336701E3,1.8774562E2,1.6446548E3,1.0497565E3,3.0613388E1,7.012424E1,1.7458512E4,6.5150493E3,2.740515E3,2.0420552E3,7.660103E3,2.272239E2,2.3757086E2,2.0991301E3,1.2573773E2,6.2007893E1],"tree_param":{"num_deleted":"0","num_feature":"13","num_nodes":"29","size_leaf_vector":"1"}},{"base_weights":[-3.8893696E-2,1.3068317E-1,-5.232963E-1,4.615124E-1,1.4451704E-2,-2.992E-1,-1.2323804E0,1.0636162E0,3.7513223E-1,-8.9963935E-2,2.0531262E-1,-9.144478E-2,-2.5466913E-1,-1.3718191E0,1.2038873E-1,-1.1159366E-1,5.769627E-2,2.1193964E-2,-5.0320473E-2,-3.6283978E-3,-8.817512E-2,2.7998978E-2,3.5346143E-3,-1.4839354E-2,5.8383804E-2,2.4608182E-2,-7.2567455E-2,4.4299226E-2,-8.154318E-2],"categories":[],"categories_nodes":[],"categories_segments":[],"categories_sizes":[],"default_left":[0,0,0,0,0,0,0,0,0,0,0,0,0,0,0,0,0,0,0,0,0,0,0,0,0,0,0,0,0],"id":8,"left_children":[1,3,5,7,9,11,13,15,17,19,21,-1,23,25,27,-1,-1,-1,-1,-1,-1,-1,-1,-1,-1,-1,-1,-1,-1],"loss_changes":[3.3882712E3,1.1748303E3,1.6992026E3,4.1273474E2,4.5061703E2,5.5323566E2,4.8459302E2,2.9901794E2,4.683686E2,4.2537292E2,3.817216E2,0E0,4.73589E2,3.4586133E2,3.244317E2,0E0,0E0,0E0,0E0,0E0,0E0,0E0,0E0,0E0,0E0,0E0,0E0,0E0,0E0],"parents":[2147483647,0,0,1,1,2,2,3,3,4,4,5,5,6,6,7,7,8,8,9,9,10,10,12,12,13,13,14,14],"right_children":[2,4,6,8,10,12,14,16,18,20,22,-1,24,26,28,-1,-1,-1,-1,-1,-1,-1,-1,-1,-1,-1,-1,-1,-1],"split_conditions":[1.498236E-2,1.146741E-2,5.611565E-2,8.82635E-3,1.396379E-2,2.0357E-4,2.6087275E0,3.7037036E-1,6.315789E-1,1.5055841E0,-8.730177E-1,-9.144478E-2,2.0886154E0,-2.08285E0,8.330758E-2,-1.1159366E-1,5.769627E-2,2.1193964E-2,-5.0320473E-2,-3.6283978E-3,-8.817512E-2,2.7998978E-2,3.5346143E-3,-1.4839354E-2,5.8383804E-2,2.4608182E-2,-7.2567455E-2,4.4299226E-2,-8.154318E-2],"split_indices":[11,11,7,11,11,3,6,8,8,3,4,0,6,6,7,0,0,0,0,0,0,0,0,0,0,0,0,0,0],"split_type":[0,0,0,0,0,0,0,0,0,0,0,0,0,0,0,0,0,0,0,0,0,0,0,0,0,0,0,0,0],"sum_hessian":[4.1246375E4,3.0551732E4,1.0694644E4,7.942384E3,2.260935E4,8.127485E3,2.5671587E3,9.9506604E2,6.947318E3,1.4614577E4,7.994772E3,2.2877235E2,7.898713E3,2.3272588E3,2.3989984E2,2.5908854E1,9.691572E2,6.7112095E3,2.361087E2,1.4465258E4,1.4931905E2,2.1987769E3,5.795995E3,7.6723145E3,2.263984E2,9.502072E1,2.232238E3,1.672689E2,7.2630936E1],"tree_param":{"num_deleted":"0","num_feature":"13","num_nodes":"29","size_leaf_vector":"1"}},{"base_weights":[-1.994988E-3,1.8901014E-1,-4.4467345E-1,5.0908434E-1,9.3289435E-2,4.177546E-2,-1.5930306E0,-1.0646718E-1,5.242541E-1,-6.345879E-2,2.1574008E-1,-1.8277845E-1,3.533195E-1,-8.13561E-2,-7.718479E-2,-5.180197E-2,2.7356556E-2,-9.8930314E-2,-1.6490038E-3,-4.9517076E-2,1.2456118E-2,-6.58301E-3,-9.923393E-2,4.8777215E-2,1.0035489E-2],"categories":[],"categories_nodes":[],"categories_segments":[],"categories_sizes":[],"default_left":[0,0,0,0,0,0,0,0,0,0,0,0,0,0,0,0,0,0,0,0,0,0,0,0,0],"id":9,"left_children":[1,3,5,7,9,11,13,-1,15,17,19,21,23,-1,-1,-1,-1,-1,-1,-1,-1,-1,-1,-1,-1],"loss_changes":[3.539926E3,8.9600476E2,7.04939E3,2.705874E2,4.3216473E2,6.2026465E2,3.803711E0,0E0,2.3954419E2,5.763722E2,5.091808E2,4.7434042E2,3.524491E2,0E0,0E0,0E0,0E0,0E0,0E0,0E0,0E0,0E0,0E0,0E0,0E0],"parents":[2147483647,0,0,1,1,2,2,3,3,4,4,5,5,6,6,8,8,9,9,10,10,11,11,12,12],"right_children":[2,4,6,8,10,12,14,-1,16,18,20,22,24,-1,-1,-1,-1,-1,-1,-1,-1,-1,-1,-1,-1],"split_conditions":[1.2632266E-1,1.142433E-2,1.501186E-2,3.6006007E-1,4.7826087E-1,1.396379E-2,1.7851168E-1,-1.0646718E-1,4.480099E-2,-1.394214E0,6.104261E-2,1.385885E-2,-1.097292E0,-8.13561E-2,-7.718479E-2,-5.180197E-2,2.7356556E-2,-9.8930314E-2,-1.6490038E-3,-4.9517076E-2,1.2456118E-2,-6.58301E-3,-9.923393E-2,4.8777215E-2,1.0035489E-2],"split_indices":[10,11,11,0,9,11,10,0,10,5,10,11,4,0,0,0,0,0,0,0,0,0,0,0,0],"split_type":[0,0,0,0,0,0,0,0,0,0,0,0,0,0,0,0,0,0,0,0,0,0,0,0,0],"sum_hessian":[4.1863938E4,2.9245695E4,1.2618242E4,6.7316963E3,2.2513998E4,8.864266E3,3.7539766E3,3.768614E1,6.6940103E3,9.874368E3,1.263963E4,5.1515547E3,3.712711E3,2.2010293E3,1.5529473E3,9.6089355E1,6.597921E3,1.5368315E2,9.720686E3,3.3964914E2,1.229998E4,5.010485E3,1.4106978E2,7.3018536E2,2.9825256E3],"tree_param":{"num_deleted":"0","num_feature":"13","num_nodes":"25","size_leaf_vector":"1"}},{"base_weights":[2.6913408E-2,1.7941265E-1,-4.2620707E-1,5.248618E-1,8.7196775E-2,2.6010734E-1,-1.5607466E0,5.9249955E-1,-2.6499963E-1,1.14242144E-1,-5.032204E-1,-1.3410751E0,3.1160003E-1,-8.268125E-2,-7.312149E-2,3.0571312E-2,-1.00420654E-1,6.364969E-3,-1.10782914E-1,6.1541623E-3,-8.304211E-2,8.228167E-3,-4.8681583E-2,-9.4944805E-2,5.6269612E-2,-2.6125718E-2,2.0117065E-2],"categories":[],"categories_nodes":[],"categories_segments":[],"categories_sizes":[],"default_left":[0,0,0,0,0,0,0,0,0,0,0,0,0,0,0,0,0,0,0,0,0,0,0,0,0,0,0],"id":10,"left_children":[1,3,5,7,9,11,13,15,17,19,21,23,25,-1,-1,-1,-1,-1,-1,-1,-1,-1,-1,-1,-1,-1,-1],"loss_changes":[2.926721E3,1.0094436E3,8.304859E3,3.5685645E2,3.9947485E2,5.483861E2,3.4291016E1,3.0399097E2,4.038214E2,3.755779E2,3.4438666E2,2.872995E2,4.8763452E2,0E0,0E0,0E0,0E0,0E0,0E0,0E0,0E0,0E0,0E0,0E0,0E0,0E0,0E0],"parents":[2147483647,0,0,1,1,2,2,3,3,4,4,5,5,6,6,7,7,8,8,9,9,10,10,11,11,12,12],"right_children":[2,4,6,8,10,12,14,16,18,20,22,24,26,-1,-1,-1,-1,-1,-1,-1,-1,-1,-1,-1,-1,-1,-1],"split_conditions":[1.501186E-2,1.113984E-2,1.2043676E-1,9.26296E-1,1.2607878E0,3.40408E-3,5.611565E-2,6.764706E-1,5.151515E-1,8E0,4.3333334E-1,5.7111293E-1,1.531146E-2,-8.268125E-2,-7.312149E-2,3.0571312E-2,-1.00420654E-1,6.364969E-3,-1.10782914E-1,6.1541623E-3,-8.304211E-2,8.228167E-3,-4.8681583E-2,-9.4944805E-2,5.6269612E-2,-2.6125718E-2,2.0117065E-2],"split_indices":[11,11,10,1,3,12,7,8,9,2,8,0,11,0,0,0,0,0,0,0,0,0,0,0,0,0,0],"split_type":[0,0,0,0,0,0,0,0,0,0,0,0,0,0,0,0,0,0,0,0,0,0,0,0,0,0,0],"sum_hessian":[4.235243E4,3.1688244E4,1.0664184E4,6.6757144E3,2.5012531E4,6.6451304E3,4.019053E3,6.1493784E3,5.2633606E2,2.3917732E4,1.0947985E3,2.0626326E2,6.438867E3,2.0585513E3,1.9605017E3,6.1057124E3,4.3666058E1,4.3898587E2,8.7350174E1,2.3800123E4,1.176098E2,4.5274432E2,6.420541E2,1.684063E2,3.7856976E1,6.312758E2,5.8075913E3],"tree_param":{"num_deleted":"0","num_feature":"13","num_nodes":"27","size_leaf_vector":"1"}},{"base_weights":[-2.5092552E-3,2.0259947E-1,-4.014291E-1,2.3502167E-1,-3.3461508E-1,-2.2127417E-1,-6.49566E-1,3.748335E-1,1.5756623E-1,-1.00823306E-1,-5.6238193E-2,-8.123638E-1,-1.5174717E-1,-1.9290216E-1,-8.265947E-1,2.3098152E-2,-1.5151309E-2,-1.8912628E-2,9.611587E-3,7.534846E-2,-1.1451743E-2,-7.769246E-2,-1.07653225E-2,1.7628778E-2,-1.6962064E-2,-2.577752E-3,-8.9564644E-2,4.6247984E-3,-4.5540765E-2],"categories":[],"categories_nodes":[],"categories_segments":[],"categories_sizes":[],"default_left":[0,0,0,0,0,0,0,0,0,0,0,0,0,0,0,0,0,0,0,0,0,0,0,0,0,0,0,0,0],"id":11,"left_children":[1,3,5,7,9,11,13,15,17,-1,19,21,23,25,27,-1,-1,-1,-1,-1,-1,-1,-1,-1,-1,-1,-1,-1,-1],"loss_changes":[3.3987488E3,4.7790247E2,6.303972E2,2.801184E2,7.3112256E2,3.3578043E2,4.7944678E2,5.4485046E2,3.0934964E2,0E0,3.625906E2,3.803932E2,6.917611E2,3.7463986E2,3.3099292E2,0E0,0E0,0E0,0E0,0E0,0E0,0E0,0E0,0E0,0E0,0E0,0E0,0E0,0E0],"parents":[2147483647,0,0,1,1,2,2,3,3,4,4,5,5,6,6,7,7,8,8,10,10,11,11,12,12,13,13,14,14],"right_children":[2,4,6,8,10,12,14,16,18,-1,20,22,24,26,28,-1,-1,-1,-1,-1,-1,-1,-1,-1,-1,-1,-1,-1,-1],"split_conditions":[1.1981917E-1,6.24975E-2,1.582449E-1,-6.459617E-1,9.075527E-2,8.199202E-1,1.519475E-2,4E0,-5.207282E-1,-1.00823306E-1,1.805678E-2,-1.970324E-2,8.38727E-1,6.086956E-1,-6E0,2.3098152E-2,-1.5151309E-2,-1.8912628E-2,9.611587E-3,7.534846E-2,-1.1451743E-2,-7.769246E-2,-1.07653225E-2,1.7628778E-2,-1.6962064E-2,-2.577752E-3,-8.9564644E-2,4.6247984E-3,-4.5540765E-2],"split_indices":[10,12,10,5,10,1,12,2,5,0,7,5,1,8,2,0,0,0,0,0,0,0,0,0,0,0,0,0,0],"split_type":[0,0,0,0,0,0,0,0,0,0,0,0,0,0,0,0,0,0,0,0,0,0,0,0,0,0,0,0,0],"sum_hessian":[4.153636E4,2.743227E4,1.410409E4,2.587143E4,1.5608412E3,8.172499E3,5.931591E3,9.221754E3,1.6649676E4,2.2077231E2,1.3400688E3,8.5899506E2,7.3135044E3,1.6576361E3,4.2739546E3,8.1717114E3,1.0500424E3,1.01111615E3,1.5638559E4,1.3261792E2,1.2074509E3,3.8244022E2,4.7655484E2,1.9818451E3,5.331659E3,1.5239078E3,1.337283E2,3.5875867E2,3.9151958E3],"tree_param":{"num_deleted":"0","num_feature":"13","num_nodes":"29","size_leaf_vector":"1"}},{"base_weights":[2.3157643E-2,1.9282691E-1,-2.9568294E-1,2.5375932E-1,8.851788E-3,-1.7200187E-1,-6.039111E-1,3.2424938E-2,3.345383E-1,-1.5975667E0,7.682463E-2,-1.3230738E-1,-1.3312216E0,-4.9817908E-1,-8.285176E-2,-1.8143471E-2,1.5546225E-2,1.8830685E-2,-1.4861521E-2,7.896332E-2,-1.0161042E-1,2.0426368E-2,-5.044664E-3,-8.5974885E-3,3.639262E-2,6.632844E-2,-8.291549E-2,1.9262195E-2,-3.0192627E-2],"categories":[],"categories_nodes":[],"categories_segments":[],"categories_sizes":[],"default_left":[0,0,0,0,0,0,0,0,0,0,0,0,0,0,0,0,0,0,0,0,0,0,0,0,0,0,0,0,0],"id":12,"left_children":[1,3,5,7,9,11,13,15,17,19,21,23,25,27,-1,-1,-1,-1,-1,-1,-1,-1,-1,-1,-1,-1,-1,-1,-1],"loss_changes":[2.2801577E3,3.083836E2,5.579734E2,3.6946887E2,7.475916E2,4.806108E2,4.6591382E2,6.085333E2,4.0255603E2,3.8698273E2,3.8724893E2,3.4465033E2,3.0283923E2,3.5597528E2,0E0,0E0,0E0,0E0,0E0,0E0,0E0,0E0,0E0,0E0,0E0,0E0,0E0,0E0,0E0],"parents":[2147483647,0,0,1,1,2,2,3,3,4,4,5,5,6,6,7,7,8,8,9,9,10,10,11,11,12,12,13,13],"right_children":[2,4,6,8,10,12,14,16,18,20,22,24,26,28,-1,-1,-1,-1,-1,-1,-1,-1,-1,-1,-1,-1,-1,-1,-1],"split_conditions":[1.1981917E-1,3.579836E-2,1.7428818E-1,4.2857143E-1,1.620969E-2,1.2776356E0,6.2857145E-1,4.7826087E-1,1.5893571E0,-1.4210322E0,4.2307693E-1,2.068166E0,3.9282382E-1,4.88548E-3,-8.285176E-2,-1.8143471E-2,1.5546225E-2,1.8830685E-2,-1.4861521E-2,7.896332E-2,-1.0161042E-1,2.0426368E-2,-5.044664E-3,-8.5974885E-3,3.639262E-2,6.632844E-2,-8.291549E-2,1.9262195E-2,-3.0192627E-2],"split_indices":[10,7,10,8,12,3,8,9,5,4,8,5,0,12,0,0,0,0,0,0,0,0,0,0,0,0,0,0,0],"split_type":[0,0,0,0,0,0,0,0,0,0,0,0,0,0,0,0,0,0,0,0,0,0,0,0,0,0,0,0,0],"sum_hessian":[4.2147023E4,2.7508775E4,1.4638248E4,2.0664373E4,6.844403E3,1.0447566E4,4.1906816E3,5.5256084E3,1.5138765E4,2.7693875E2,6.567464E3,1.0102738E4,3.4482803E2,3.8096697E3,3.8101193E2,2.283777E3,3.241831E3,1.4193865E4,9.448989E2,3.301269E1,2.4392607E2,2.2906907E3,4.2767734E3,9.658409E3,4.4432916E2,3.745201E1,3.0737604E2,4.0673615E2,3.4029336E3],"tree_param":{"num_deleted":"0","num_feature":"13","num_nodes":"29","size_leaf_vector":"1"}},{"base_weights":[1.4259528E-2,1.6559039E-1,-4.4977018E-1,6.780004E-1,1.1843905E-1,1.7801656E-1,-1.497143E0,7.416528E-1,-9.427181E-1,1.2695457E-1,-7.958596E-2,2.64453E-1,-5.964221E-1,-7.902047E-2,-7.033979E-2,2.4490304E-2,5.4899365E-2,8.1199795E-2,-1.0280009E-1,1.3464324E-2,1.7850578E-3,-8.842991E-2,1.5190913E-2,-9.1431364E-2,-1.1601369E-2],"categories":[],"categories_nodes":[],"categories_segments":[],"categories_sizes":[],"default_left":[0,0,0,0,0,0,0,0,0,0,0,0,0,0,0,0,0,0,0,0,0,0,0,0,0],"id":13,"left_children":[1,3,5,7,9,11,13,15,17,19,-1,21,23,-1,-1,-1,-1,-1,-1,-1,-1,-1,-1,-1,-1],"loss_changes":[2.9343755E3,7.6124335E2,6.7572686E3,2.7459888E2,4.2043777E2,4.303177E2,2.675E1,2.2877515E2,2.9129846E2,3.7294327E2,0E0,4.6324506E2,2.8941986E2,0E0,0E0,0E0,0E0,0E0,0E0,0E0,0E0,0E0,0E0,0E0,0E0],"parents":[2147483647,0,0,1,1,2,2,3,3,4,4,5,5,6,6,7,7,8,8,9,9,11,11,12,12],"right_children":[2,4,6,8,10,12,14,16,18,20,-1,22,24,-1,-1,-1,-1,-1,-1,-1,-1,-1,-1,-1,-1],"split_conditions":[1.501186E-2,9.93431E-3,1.2043676E-1,1.473642E0,8E0,5.779326E-2,5.611565E-2,4.8226297E-1,8.3609E-4,-5.712083E-1,-7.958596E-2,1.509599E-2,4.8215458E-1,-7.902047E-2,-7.033979E-2,2.4490304E-2,5.4899365E-2,8.1199795E-2,-1.0280009E-1,1.3464324E-2,1.7850578E-3,-8.842991E-2,1.5190913E-2,-9.1431364E-2,-1.1601369E-2],"split_indices":[11,11,10,5,2,12,7,3,12,5,0,11,0,0,0,0,0,0,0,0,0,0,0,0,0],"split_type":[0,0,0,0,0,0,0,0,0,0,0,0,0,0,0,0,0,0,0,0,0,0,0,0,0],"sum_hessian":[4.1785055E4,3.1509666E4,1.0275391E4,2.6540293E3,2.8855637E4,6.42508E3,3.8503105E3,2.5542554E3,9.977392E1,2.8713586E4,1.420499E2,5.78056E3,6.445197E2,1.9950907E3,1.8552198E3,1.4979341E3,1.0563212E3,3.004512E1,6.97288E1,1.1216606E4,1.749698E4,1.089666E2,5.6715938E3,1.4618272E2,4.9833698E2],"tree_param":{"num_deleted":"0","num_feature":"13","num_nodes":"25","size_leaf_vector":"1"}},{"base_weights":[-1.7181085E-2,1.3637711E-1,-4.8542747E-1,7.161839E-1,7.8013495E-2,9.57101E-2,-1.4390289E0,-1.1460239E-1,7.469211E-1,2.171178E-1,-3.0113522E-2,-8.4060115E-1,1.7407238E-1,-3.360572E-1,-1.4615262E0,1.4047761E-2,4.31187E-2,1.525698E-2,-3.1474815E-3,-6.549119E-4,-8.7491006E-2,1.0977285E-2,-8.936876E-2,-2.9725723E-3,2.3803413E-2,8.137469E-2,-8.9853E-2,-7.6832555E-2,-6.894829E-2],"categories":[],"categories_nodes":[],"categories_segments":[],"categories_sizes":[],"default_left":[0,0,0,0,0,0,0,0,0,0,0,0,0,0,0,0,0,0,0,0,0,0,0,0,0,0,0,0,0],"id":14,"left_children":[1,3,5,7,9,11,13,-1,15,17,19,21,23,25,27,-1,-1,-1,-1,-1,-1,-1,-1,-1,-1,-1,-1,-1,-1],"loss_changes":[2.9555247E3,1.0473967E3,5.6255166E3,2.6345288E2,4.2301367E2,4.6298563E2,9.488818E1,0E0,1.5054224E2,3.032412E2,4.6302676E2,4.8955014E2,4.1060168E2,2.2706898E2,2.1243164E1,0E0,0E0,0E0,0E0,0E0,0E0,0E0,0E0,0E0,0E0,0E0,0E0,0E0,0E0],"parents":[2147483647,0,0,1,1,2,2,3,3,4,4,5,5,6,6,8,8,9,9,10,10,11,11,12,12,13,13,14,14],"right_children":[2,4,6,8,10,12,14,-1,16,18,20,22,24,26,28,-1,-1,-1,-1,-1,-1,-1,-1,-1,-1,-1,-1,-1,-1],"split_conditions":[1.498236E-2,9.93431E-3,1.2043676E-1,7.838796E-1,8.495051E-1,1.522728E-2,1.501186E-2,-1.1460239E-1,4.2857143E-1,5.588235E-1,1.5055841E0,-9.6216136E-1,8.625224E-1,3.0769232E-1,5.611565E-2,1.4047761E-2,4.31187E-2,1.525698E-2,-3.1474815E-3,-6.549119E-4,-8.7491006E-2,1.0977285E-2,-8.936876E-2,-2.9725723E-3,2.3803413E-2,8.137469E-2,-8.9853E-2,-7.6832555E-2,-6.894829E-2],"split_indices":[11,11,10,1,1,11,11,0,8,8,3,6,1,8,7,0,0,0,0,0,0,0,0,0,0,0,0,0,0],"split_type":[0,0,0,0,0,0,0,0,0,0,0,0,0,0,0,0,0,0,0,0,0,0,0,0,0,0,0,0,0],"sum_hessian":[4.110237E4,3.095244E4,1.0149933E4,2.8297124E3,2.8122729E4,6.307162E3,3.8427703E3,2.7876625E1,2.8018357E3,1.2299079E4,1.5823648E4,4.86345E2,5.820817E3,7.713299E1,3.7656372E3,5.57045E2,2.2447908E3,9.357912E3,2.9411677E3,1.5669616E4,1.540322E2,2.2979782E2,2.5654718E2,3.282989E3,2.5378281E3,3.2858303E1,4.4274685E1,1.9623788E3,1.8032584E3],"tree_param":{"num_deleted":"0","num_feature":"13","num_nodes":"29","size_leaf_vector":"1"}},{"base_weights":[3.990951E-3,1.4031842E-1,-4.135136E-1,7.094402E-1,8.288911E-2,1.5657605E-1,-1.4052716E0,-1.0819477E-1,7.402383E-1,9.068348E-2,-7.741237E-2,-1.1929403E-1,5.3963774E-1,1.5427897E-2,-1.4339557E0,3.80115E-2,-1.1394463E-1,1.7862787E-2,2.6071183E-3,-5.9792757E-2,1.5942297E-4,2.9321486E-2,-9.454256E-2,9.701082E-2,-6.8258025E-2,-7.507718E-2,-6.7943566E-2],"categories":[],"categories_nodes":[],"categories_segments":[],"categories_sizes":[],"default_left":[0,0,0,0,0,0,0,0,0,0,0,0,0,0,0,0,0,0,0,0,0,0,0,0,0,0,0],"id":15,"left_children":[1,3,5,7,9,11,13,-1,15,17,-1,19,21,23,25,-1,-1,-1,-1,-1,-1,-1,-1,-1,-1,-1,-1],"loss_changes":[2.3533855E3,1.0186971E3,5.754656E3,2.5441443E2,3.6011243E2,6.8311786E2,1.5141797E2,0E0,1.723811E2,2.8950293E2,0E0,4.9558746E2,3.0888843E2,2.0065556E2,1.6439941E1,0E0,0E0,0E0,0E0,0E0,0E0,0E0,0E0,0E0,0E0,0E0,0E0],"parents":[2147483647,0,0,1,1,2,2,3,3,4,4,5,5,6,6,8,8,9,9,11,11,12,12,13,13,14,14],"right_children":[2,4,6,8,10,12,14,-1,16,18,-1,20,22,24,26,-1,-1,-1,-1,-1,-1,-1,-1,-1,-1,-1,-1],"split_conditions":[1.498236E-2,9.93431E-3,1.2043676E-1,2.9411766E-1,8E0,5.063012E-1,2.3076923E-1,-1.0819477E-1,9.5341355E-1,-1.0894353E0,-7.741237E-2,1.533719E-2,9.26296E-1,1.501186E-2,5.611565E-2,3.80115E-2,-1.1394463E-1,1.7862787E-2,2.6071183E-3,-5.9792757E-2,1.5942297E-4,2.9321486E-2,-9.454256E-2,9.701082E-2,-6.8258025E-2,-7.507718E-2,-6.7943566E-2],"split_indices":[11,11,10,8,2,0,9,0,1,4,0,11,1,11,7,0,0,0,0,0,0,0,0,0,0,0,0],"split_type":[0,0,0,0,0,0,0,0,0,0,0,0,0,0,0,0,0,0,0,0,0,0,0,0,0,0,0],"sum_hessian":[4.1345406E4,3.1168605E4,1.01768E4,2.8558557E3,2.831275E4,6.462703E3,3.7140964E3,2.9551628E1,2.8263042E3,2.8179041E4,1.3370888E2,3.7574111E3,2.7052917E3,7.351315E1,3.6405833E3,2.8084558E3,1.7848421E1,3.5584573E3,2.4620584E4,3.8292496E2,3.3744863E3,2.6549373E3,5.035437E1,3.0535633E1,4.297752E1,1.9059388E3,1.7346444E3],"tree_param":{"num_deleted":"0","num_feature":"13","num_nodes":"27","size_leaf_vector":"1"}},{"base_weights":[-1.6296411E-2,1.0534445E-1,-3.665123E-1,6.7888975E-1,5.4792047E-2,-1.8137492E-1,-1.0471045E0,7.764955E-1,1.0475299E-1,2.0419313E-2,5.817458E-1,-2.2487473E-1,1.166953E0,-1.1921926E0,2.0675394E-1,3.9606098E-2,-9.447229E-2,-1.2202437E-1,2.5364047E-2,-7.476669E-3,6.680395E-3,-1.0555636E-1,3.3789646E-2,-7.5800815E-3,-7.054873E-2,-9.3438014E-2,6.545716E-2,1.7657354E-2,-6.6100165E-2,4.197457E-2,-7.024234E-2],"categories":[],"categories_nodes":[],"categories_segments":[],"categories_sizes":[],"default_left":[0,0,0,0,0,0,0,0,0,0,0,0,0,0,0,0,0,0,0,0,0,0,0,0,0,0,0,0,0,0,0],"id":16,"left_children":[1,3,5,7,9,11,13,15,17,19,21,23,25,27,29,-1,-1,-1,-1,-1,-1,-1,-1,-1,-1,-1,-1,-1,-1,-1,-1],"loss_changes":[1.733625E3,8.7570544E2,1.3216832E3,1.3701672E2,5.0277716E2,4.8405588E2,4.0834033E2,8.859961E1,3.666207E2,5.0132733E2,4.3190308E2,6.9432825E2,1.1379425E2,4.0382764E2,2.392903E2,0E0,0E0,0E0,0E0,0E0,0E0,0E0,0E0,0E0,0E0,0E0,0E0,0E0,0E0,0E0,0E0],"parents":[2147483647,0,0,1,1,2,2,3,3,4,4,5,5,6,6,7,7,8,8,9,9,10,10,11,11,12,12,13,13,14,14],"right_children":[2,4,6,8,10,12,14,16,18,20,22,24,26,28,30,-1,-1,-1,-1,-1,-1,-1,-1,-1,-1,-1,-1,-1,-1,-1,-1],"split_conditions":[1.493381E-2,9.79638E-3,5.611565E-2,9.1276246E-1,1.476512E-2,2.0886154E0,2.6087275E0,2.4034736E0,7.812174E-2,4.7619048E-1,5.97851E-3,6.020211E-2,7.80822E-2,-1.7508614E0,8.330758E-2,3.9606098E-2,-9.447229E-2,-1.2202437E-1,2.5364047E-2,-7.476669E-3,6.680395E-3,-1.0555636E-1,3.3789646E-2,-7.5800815E-3,-7.054873E-2,-9.3438014E-2,6.545716E-2,1.7657354E-2,-6.6100165E-2,4.197457E-2,-7.024234E-2],"split_indices":[11,11,7,1,11,6,6,5,3,9,12,12,3,6,7,0,0,0,0,0,0,0,0,0,0,0,0,0,0,0,0],"split_type":[0,0,0,0,0,0,0,0,0,0,0,0,0,0,0,0,0,0,0,0,0,0,0,0,0,0,0,0,0,0,0],"sum_hessian":[4.069298E4,3.0203176E4,1.0489803E4,2.445474E3,2.7757703E4,8.24754E3,2.242262E3,2.0898398E3,3.556343E2,2.605894E4,1.6987632E3,7.990581E3,2.5695926E2,2.0097559E3,2.3250616E2,2.0783604E3,1.1479489E1,4.7871735E1,3.0776257E2,1.0417195E4,1.5641743E4,5.660246E1,1.6421606E3,7.5267334E3,4.6384753E2,1.0953927E1,2.4600533E2,1.5560661E2,1.8541492E3,1.6730064E2,6.520553E1],"tree_param":{"num_deleted":"0","num_feature":"13","num_nodes":"31","size_leaf_vector":"1"}},{"base_weights":[-8.762447E-3,1.13412306E-1,-3.5326052E-1,3.502599E-1,-1.0588887E-2,3.0193534E-2,-1.3733608E0,-1.0387828E-1,3.6750016E-1,-7.590045E-2,2.6539645E-1,-1.7038123E-1,3.8974667E-1,-7.216702E-2,-6.5282054E-2,1.9890811E-2,-3.925235E-2,6.0543965E-4,-1.5385792E-2,2.1530775E-2,-7.527815E-2,-5.6706615E-2,-4.1301358E-3,-9.981568E-2,2.4131311E-2],"categories":[],"categories_nodes":[],"categories_segments":[],"categories_sizes":[],"default_left":[0,0,0,0,0,0,0,0,0,0,0,0,0,0,0,0,0,0,0,0,0,0,0,0,0],"id":17,"left_children":[1,3,5,7,9,11,13,-1,15,17,19,21,23,-1,-1,-1,-1,-1,-1,-1,-1,-1,-1,-1,-1],"loss_changes":[1.7141437E3,8.829796E2,4.170693E3,4.331953E2,3.5572946E2,5.5899396E2,1.192041E1,0E0,3.587799E2,3.255888E2,1.1056708E3,4.2083246E2,6.1607556E2,0E0,0E0,0E0,0E0,0E0,0E0,0E0,0E0,0E0,0E0,0E0,0E0],"parents":[2147483647,0,0,1,1,2,2,3,3,4,4,5,5,6,6,8,8,9,9,10,10,11,11,12,12],"right_children":[2,4,6,8,10,12,14,-1,16,18,20,22,24,-1,-1,-1,-1,-1,-1,-1,-1,-1,-1,-1,-1],"split_conditions":[1.3147813E-1,1.222669E-2,1.501186E-2,3.6006007E-1,1.628578E-2,1.417078E-2,5.611565E-2,-1.0387828E-1,6.141843E-2,3.665114E-2,1.1945546E-1,2.2964E-2,4.445616E-1,-7.216702E-2,-6.5282054E-2,1.9890811E-2,-3.925235E-2,6.0543965E-4,-1.5385792E-2,2.1530775E-2,-7.527815E-2,-5.6706615E-2,-4.1301358E-3,-9.981568E-2,2.4131311E-2],"split_indices":[10,11,11,0,11,11,7,0,12,7,10,7,0,0,0,0,0,0,0,0,0,0,0,0,0],"split_type":[0,0,0,0,0,0,0,0,0,0,0,0,0,0,0,0,0,0,0,0,0,0,0,0,0],"sum_hessian":[4.0724727E4,3.0063506E4,1.0661222E4,1.0330322E4,1.9733184E4,7.7492583E3,2.9119631E3,7.199695E1,1.0258325E4,1.595757E4,3.7756128E3,4.974684E3,2.7745745E3,1.422098E3,1.4898652E3,9.996049E3,2.6227643E2,1.1567058E4,4.390512E3,3.4541223E3,3.214904E2,4.1427655E2,4.560407E3,1.0318838E2,2.671386E3],"tree_param":{"num_deleted":"0","num_feature":"13","num_nodes":"25","size_leaf_vector":"1"}},{"base_weights":[1.2297031E-3,6.340063E-2,-4.5917177E-1,9.1855444E-2,-3.9622715E-1,1.534603E-1,-5.715453E-1,3.637023E-2,2.3520194E-1,6.1207633E-2,-1.0095105E0,-7.9101495E-2,4.9543768E-1,-1.9228801E-1,-7.680979E-1,2.5855178E-2,4.924115E-4,-9.62558E-2,1.3358233E-2,-4.7640797E-2,1.6135657E-2,7.567546E-3,-7.802316E-2,3.7450206E-2,-7.739856E-2,-1.6541915E-3,-7.845426E-2,-4.1309457E-2,6.4057134E-2],"categories":[],"categories_nodes":[],"categories_segments":[],"categories_sizes":[],"default_left":[0,0,0,0,0,0,0,0,0,0,0,0,0,0,0,0,0,0,0,0,0,0,0,0,0,0,0,0,0],"id":18,"left_children":[1,3,5,7,9,11,13,15,17,19,21,-1,23,25,27,-1,-1,-1,-1,-1,-1,-1,-1,-1,-1,-1,-1,-1,-1],"loss_changes":[1.1679326E3,4.7019635E2,3.3428168E2,2.6925125E2,5.880592E2,4.478087E2,3.0564563E2,3.1119525E2,6.528207E2,3.1890387E2,5.7298145E2,0E0,3.2757605E2,3.071706E2,3.2266174E2,0E0,0E0,0E0,0E0,0E0,0E0,0E0,0E0,0E0,0E0,0E0,0E0,0E0,0E0],"parents":[2147483647,0,0,1,1,2,2,3,3,4,4,5,5,6,6,7,7,8,8,9,9,10,10,12,12,13,13,14,14],"right_children":[2,4,6,8,10,12,14,16,18,20,22,-1,24,26,28,-1,-1,-1,-1,-1,-1,-1,-1,-1,-1,-1,-1,-1,-1],"split_conditions":[1.6598816E-1,6.738432E-2,-1.097292E0,3.925449E-2,4.827586E-1,8.310297E-1,5.116515E-1,3.719E-5,2.4087E-4,1.057938E-1,1.0038481E-1,-7.9101495E-2,4.900984E-2,1.0037197E0,2.8983872E0,2.5855178E-2,4.924115E-4,-9.62558E-2,1.3358233E-2,-4.7640797E-2,1.6135657E-2,7.567546E-3,-7.802316E-2,3.7450206E-2,-7.739856E-2,-1.6541915E-3,-7.845426E-2,-4.1309457E-2,6.4057134E-2],"split_indices":[10,12,4,12,9,1,0,3,3,10,10,0,12,3,5,0,0,0,0,0,0,0,0,0,0,0,0,0,0],"split_type":[0,0,0,0,0,0,0,0,0,0,0,0,0,0,0,0,0,0,0,0,0,0,0,0,0,0,0,0,0],"sum_hessian":[4.0801133E4,3.5947742E4,4.8533896E3,3.3852773E4,2.09497E3,7.5220306E2,4.1011865E3,2.4406852E4,9.445921E3,1.2004674E3,8.945025E2,1.2322521E2,6.289779E2,1.4006145E3,2.700572E3,1.2751526E3,2.31317E4,1.368548E2,9.309066E3,2.4557458E2,9.548928E2,2.881318E2,6.0637067E2,5.601076E2,6.887024E1,1.2563608E3,1.4425366E2,2.6267078E3,7.386435E1],"tree_param":{"num_deleted":"0","num_feature":"13","num_nodes":"29","size_leaf_vector":"1"}},{"base_weights":[4.811139E-3,1.1158376E-1,-3.207196E-1,3.5268188E-1,3.2653157E-2,-7.616035E-1,-1.4706726E-1,-3.289944E-1,4.16931E-1,-8.692181E-2,2.4466693E-1,-1.1985825E0,-4.9140814E-1,-3.7046224E-2,-9.1518444E-1,-2.6538337E-2,7.276397E-2,4.6589017E-2,1.705974E-2,-3.459996E-3,-9.26897E-2,3.7858833E-2,7.281924E-3,-2.333694E-3,-6.8226464E-2,-7.348395E-2,-1.5537845E-2,9.584167E-5,-6.9356605E-2,-7.581585E-2,-2.114307E-2],"categories":[],"categories_nodes":[],"categories_segments":[],"categories_sizes":[],"default_left":[0,0,0,0,0,0,0,0,0,0,0,0,0,0,0,0,0,0,0,0,0,0,0,0,0,0,0,0,0,0,0],"id":19,"left_children":[1,3,5,7,9,11,13,15,17,19,21,23,25,27,29,-1,-1,-1,-1,-1,-1,-1,-1,-1,-1,-1,-1,-1,-1,-1,-1],"loss_changes":[1.4186879E3,5.848823E2,7.716992E2,3.321341E2,5.870613E2,3.3572253E2,6.1127496E2,2.3603625E2,2.6981824E2,4.6349423E2,4.2370786E2,2.0784082E2,3.108978E2,3.3289822E2,2.675661E2,0E0,0E0,0E0,0E0,0E0,0E0,0E0,0E0,0E0,0E0,0E0,0E0,0E0,0E0,0E0,0E0],"parents":[2147483647,0,0,1,1,2,2,3,3,4,4,5,5,6,6,7,7,8,8,9,9,10,10,11,11,12,12,13,13,14,14],"right_children":[2,4,6,8,10,12,14,16,18,20,22,24,26,28,30,-1,-1,-1,-1,-1,-1,-1,-1,-1,-1,-1,-1,-1,-1,-1,-1],"split_conditions":[1.498236E-2,1.142433E-2,8.38727E-1,3.6363637E-1,1.396379E-2,1.628578E-2,6.020211E-2,2.5032213E0,8.82635E-3,8.419986E-2,-1.1204528E0,3.181818E-1,8.030645E-1,6.0864204E-1,5.415145E-1,-2.6538337E-2,7.276397E-2,4.6589017E-2,1.705974E-2,-3.459996E-3,-9.26897E-2,3.7858833E-2,7.281924E-3,-2.333694E-3,-6.8226464E-2,-7.348395E-2,-1.5537845E-2,9.584167E-5,-6.9356605E-2,-7.581585E-2,-2.114307E-2],"split_indices":[11,11,1,8,11,11,12,5,11,12,4,9,1,0,0,0,0,0,0,0,0,0,0,0,0,0,0,0,0,0,0],"split_type":[0,0,0,0,0,0,0,0,0,0,0,0,0,0,0,0,0,0,0,0,0,0,0,0,0,0,0,0,0,0,0],"sum_hessian":[4.081439E4,3.0734326E4,1.0080063E4,7.5793364E3,2.315499E4,2.8474138E3,7.23265E3,6.524796E2,6.9268564E3,1.4805394E4,8.349596E3,1.0866195E3,1.7607942E3,6.3273955E3,9.052544E2,5.868221E2,6.56575E1,8.868454E2,6.040011E3,1.4659397E4,1.4599597E2,1.3510022E3,6.9985938E3,1.369905E2,9.49629E2,2.7335803E2,1.4874362E3,6.150882E3,1.7651395E2,4.066499E2,4.9860446E2],"tree_param":{"num_deleted":"0","num_feature":"13","num_nodes":"31","size_leaf_vector":"1"}},{"base_weights":[6.980793E-3,1.0206032E-1,-2.552711E-1,2.8699628E-1,4.7591668E-2,-1.3782926E0,-2.1089672E-1,3.088015E-1,-1.0421729E-1,-1.1462604E0,6.0489744E-2,-1.6516762E0,1.6813695E0,-1.5019916E-1,-1.0094463E0,-1.8380817E-4,2.320268E-2,8.732994E-2,-7.85204E-2,-1.5038765E-2,4.9306485E-3,-8.545994E-2,-7.353152E-2,1.0398513E-1,-6.202021E-2,-5.247372E-2,-5.0491374E-3,-1.0636992E-2,-7.928378E-2],"categories":[],"categories_nodes":[],"categories_segments":[],"categories_sizes":[],"default_left":[0,0,0,0,0,0,0,0,0,0,0,0,0,0,0,0,0,0,0,0,0,0,0,0,0,0,0,0,0],"id":20,"left_children":[1,3,5,7,9,11,13,15,-1,17,19,21,23,25,27,-1,-1,-1,-1,-1,-1,-1,-1,-1,-1,-1,-1,-1,-1],"loss_changes":[1.0187446E3,3.0203317E2,5.414559E2,3.5339038E2,3.5676114E2,3.4827545E2,5.0680142E2,3.279798E2,0E0,3.0659164E2,3.1566415E2,1.4403076E0,4.258616E1,4.3015668E2,3.3877112E2,0E0,0E0,0E0,0E0,0E0,0E0,0E0,0E0,0E0,0E0,0E0,0E0,0E0,0E0],"parents":[2147483647,0,0,1,1,2,2,3,3,4,4,5,5,6,6,7,7,9,9,10,10,11,11,12,12,13,13,14,14],"right_children":[2,4,6,8,10,12,14,16,-1,18,20,22,24,26,28,-1,-1,-1,-1,-1,-1,-1,-1,-1,-1,-1,-1,-1,-1],"split_conditions":[1.3147813E-1,-9.1048735E-1,7.872242E-1,9.5314425E-1,2.6086956E-1,2.7324972E0,1.0791955E0,1.945488E-2,-1.0421729E-1,2.6086956E-1,2.60661E-3,9.235994E-2,1.875E-1,-1.2650398E0,4.516129E-1,-1.8380817E-4,2.320268E-2,8.732994E-2,-7.85204E-2,-1.5038765E-2,4.9306485E-3,-8.545994E-2,-7.353152E-2,1.0398513E-1,-6.202021E-2,-5.247372E-2,-5.0491374E-3,-1.0636992E-2,-7.928378E-2],"split_indices":[10,5,1,1,9,6,3,7,0,8,3,7,8,6,9,0,0,0,0,0,0,0,0,0,0,0,0,0,0],"split_type":[0,0,0,0,0,0,0,0,0,0,0,0,0,0,0,0,0,0,0,0,0,0,0,0,0,0,0,0,0],"sum_hessian":[4.085432E4,2.998416E4,1.0870158E4,6.8209395E3,2.3163223E4,4.1204758E2,1.045811E4,6.759652E3,6.128737E1,2.4663565E2,2.2916586E4,3.7867297E2,3.337459E1,9.72045E3,7.376608E2,2.2440344E3,4.5156177E3,3.113876E1,2.1549689E2,2.1868232E3,2.0729764E4,2.809633E2,9.7709694E1,2.962407E1,3.7505224E0,5.033313E2,9.217118E3,3.101753E2,4.2748553E2],"tree_param":{"num_deleted":"0","num_feature":"13","num_nodes":"29","size_leaf_vector":"1"}},{"base_weights":[6.217345E-3,3.698747E-2,-4.4602466E-1,6.288327E-2,-3.2186693E-1,-6.022394E-1,3.6608705E-1,1.5273347E-3,2.369223E-1,3.0536812E-2,-8.3119357E-1,-8.95081E-1,1.5652293E-1,-8.700148E-2,7.972786E-1,4.8978552E-2,-4.965403E-4,-9.6016034E-2,1.3051567E-2,-8.759561E-2,7.51359E-3,-7.207647E-2,-9.308641E-3,9.738227E-2,-4.7788437E-2,2.5263196E-2,-7.8674674E-2,5.7505485E-2,-8.21599E-2],"categories":[],"categories_nodes":[],"categories_segments":[],"categories_sizes":[],"default_left":[0,0,0,0,0,0,0,0,0,0,0,0,0,0,0,0,0,0,0,0,0,0,0,0,0,0,0,0,0],"id":21,"left_children":[1,3,5,7,9,11,13,15,17,19,21,23,25,-1,27,-1,-1,-1,-1,-1,-1,-1,-1,-1,-1,-1,-1,-1,-1],"loss_changes":[5.6655005E2,3.542594E2,3.292594E2,3.796657E2,4.6056177E2,4.835522E2,3.8193344E2,2.946126E2,4.8248956E2,3.2413004E2,4.1282996E2,2.7269983E2,3.6682996E2,0E0,3.019861E2,0E0,0E0,0E0,0E0,0E0,0E0,0E0,0E0,0E0,0E0,0E0,0E0,0E0,0E0],"parents":[2147483647,0,0,1,1,2,2,3,3,4,4,5,5,6,6,7,7,8,8,9,9,10,10,11,11,12,12,14,14],"right_children":[2,4,6,8,10,12,14,16,18,20,22,24,26,-1,28,-1,-1,-1,-1,-1,-1,-1,-1,-1,-1,-1,-1,-1,-1],"split_conditions":[6.845623E-2,6.927492E-2,1.396837E0,3.925449E-2,-1E0,1.111931E0,6.822714E-2,-1.5804347E0,-1.3627703E0,7.140299E-2,6E0,-1.6946733E0,3E0,-8.700148E-2,1.9098303E0,4.8978552E-2,-4.965403E-4,-9.6016034E-2,1.3051567E-2,-8.759561E-2,7.51359E-3,-7.207647E-2,-9.308641E-3,9.738227E-2,-4.7788437E-2,2.5263196E-2,-7.8674674E-2,5.7505485E-2,-8.21599E-2],"split_indices":[12,7,5,12,2,3,7,4,4,7,2,4,2,0,4,0,0,0,0,0,0,0,0,0,0,0,0,0,0],"split_type":[0,0,0,0,0,0,0,0,0,0,0,0,0,0,0,0,0,0,0,0,0,0,0,0,0,0,0,0,0],"sum_hessian":[4.0711285E4,3.8118645E4,2.592639E3,3.555382E4,2.5648252E3,2.1745996E3,4.180392E2,2.6287426E4,9.266394E3,1.5164983E3,1.048327E3,1.5689061E3,6.056935E2,7.052598E1,3.4751324E2,3.0342227E2,2.5984004E4,1.0154602E2,9.164848E3,9.459954E1,1.4218988E3,5.380114E2,5.1031555E2,3.2143703E1,1.5367625E3,5.0466898E2,1.0102448E2,3.0407977E2,4.3433483E1],"tree_param":{"num_deleted":"0","num_feature":"13","num_nodes":"29","size_leaf_vector":"1"}},{"base_weights":[2.333364E-2,1.3010113E-1,-3.2050818E-1,3.8197923E-1,3.4082178E-2,1.946597E-1,-1.3455184E0,9.0557176E-1,3.1112966E-1,7.3804086E-1,4.747362E-3,-2.0074247E-1,4.1438878E-1,-7.0577376E-2,-6.332981E-2,4.8686754E-2,-1.1401514E-1,1.7615808E-2,-3.9285365E-2,-1.0296299E-1,4.3275848E-2,-1.9041098E-3,1.8809645E-2,-4.87393E-3,-9.637474E-2,3.6662158E-2,4.200658E-3],"categories":[],"categories_nodes":[],"categories_segments":[],"categories_sizes":[],"default_left":[0,0,0,0,0,0,0,0,0,0,0,0,0,0,0,0,0,0,0,0,0,0,0,0,0,0,0],"id":22,"left_children":[1,3,5,7,9,11,13,15,17,19,21,23,25,-1,-1,-1,-1,-1,-1,-1,-1,-1,-1,-1,-1,-1,-1],"loss_changes":[1.5079862E3,7.580467E2,5.1397075E3,3.206317E2,4.6864493E2,5.6291907E2,1.5177734E1,2.2601196E2,3.4456738E2,3.2551523E2,3.4662726E2,4.1255518E2,4.3863165E2,0E0,0E0,0E0,0E0,0E0,0E0,0E0,0E0,0E0,0E0,0E0,0E0,0E0,0E0],"parents":[2147483647,0,0,1,1,2,2,3,3,4,4,5,5,6,6,7,7,8,8,9,9,10,10,11,11,12,12],"right_children":[2,4,6,8,10,12,14,16,18,20,22,24,26,-1,-1,-1,-1,-1,-1,-1,-1,-1,-1,-1,-1,-1,-1],"split_conditions":[1.501186E-2,1.156782E-2,1.2043676E-1,8.82635E-3,1.775E-5,9.293149E-2,5.611565E-2,1.160762E0,6.315789E-1,6.47573E-3,1.474393E-2,9.075527E-2,-6.027162E-1,-7.0577376E-2,-6.332981E-2,4.8686754E-2,-1.1401514E-1,1.7615808E-2,-3.9285365E-2,-1.0296299E-1,4.3275848E-2,-1.9041098E-3,1.8809645E-2,-4.87393E-3,-9.637474E-2,3.6662158E-2,4.200658E-3],"split_indices":[11,11,10,11,3,10,7,5,8,7,11,10,6,0,0,0,0,0,0,0,0,0,0,0,0,0,0],"split_type":[0,0,0,0,0,0,0,0,0,0,0,0,0,0,0,0,0,0,0,0,0,0,0,0,0,0,0],"sum_hessian":[4.107495E4,3.1343113E4,9.731835E3,8.64982E3,2.2693293E4,6.477212E3,3.2546228E3,1.0295388E3,7.6202817E3,9.0686035E2,2.1786432E4,2.313735E3,4.1634766E3,1.7628639E3,1.4917588E3,1.00865265E3,2.0886248E1,7.3451484E3,2.7513342E2,3.8864918E1,8.679954E2,1.9534861E4,2.2515713E3,2.184173E3,1.2956224E2,2.1180603E3,2.0454164E3],"tree_param":{"num_deleted":"0","num_feature":"13","num_nodes":"27","size_leaf_vector":"1"}},{"base_weights":[1.4755911E-2,7.480961E-2,-4.5290947E-1,8.174957E-2,-7.642177E-2,3.8418895E-1,-5.9167194E-1,-1.7932014E-1,1.1593618E-1,5.753558E-1,-7.964646E-2,4.0033188E-1,-6.8993634E-1,-5.1232953E-2,-4.0129116E-3,6.906591E-3,-1.763857E-2,3.5196695E-2,-8.167518E-2,4.5243707E-2,-3.4436267E-2,-1.9673085E-2,-5.2357174E-2],"categories":[],"categories_nodes":[],"categories_segments":[],"categories_sizes":[],"default_left":[0,0,0,0,0,0,0,0,0,0,0,0,0,0,0,0,0,0,0,0,0,0,0],"id":23,"left_children":[1,3,5,7,-1,9,11,13,15,17,-1,19,21,-1,-1,-1,-1,-1,-1,-1,-1,-1,-1],"loss_changes":[1.1451183E3,4.0215857E2,5.3919324E2,3.2113043E2,0E0,2.505144E2,3.882959E2,3.487978E2,3.3100888E2,1.723786E2,0E0,1.9810211E2,3.8318555E2,0E0,0E0,0E0,0E0,0E0,0E0,0E0,0E0,0E0,0E0],"parents":[2147483647,0,0,1,1,2,2,3,3,5,5,6,6,7,7,8,8,9,9,11,11,12,12],"right_children":[2,4,6,8,-1,10,12,14,16,18,-1,20,22,-1,-1,-1,-1,-1,-1,-1,-1,-1,-1],"split_conditions":[1.6598816E-1,8.922766E-2,5.86461E-3,8.2426137E-1,-7.642177E-2,4.6688798E-1,-6E0,8.15076E-3,6.845623E-2,6.086956E-1,-7.964646E-2,-3.425095E-1,8.465362E-1,-5.1232953E-2,-4.0129116E-3,6.906591E-3,-1.763857E-2,3.5196695E-2,-8.167518E-2,4.5243707E-2,-3.4436267E-2,-1.9673085E-2,-5.2357174E-2],"split_indices":[10,7,12,1,0,3,2,12,12,8,0,4,1,0,0,0,0,0,0,0,0,0,0],"split_type":[0,0,0,0,0,0,0,0,0,0,0,0,0,0,0,0,0,0,0,0,0,0,0],"sum_hessian":[4.0771047E4,3.61321E4,4.638944E3,3.5977316E4,1.5478595E2,6.593828E2,3.979561E3,4.1651855E3,3.181213E4,6.0189484E2,5.7488E1,3.5839536E2,3.6211658E3,4.3592264E2,3.7292632E3,3.0374455E4,1.4376755E3,5.6942957E2,3.2465286E1,2.4504102E2,1.1335434E2,1.9799496E3,1.6412162E3],"tree_param":{"num_deleted":"0","num_feature":"13","num_nodes":"23","size_leaf_vector":"1"}},{"base_weights":[-1.0734075E-2,8.754872E-2,-3.2648066E-1,2.562729E-1,-2.1100173E-2,1.7334746E-1,-1.3292651E0,2.9981568E-1,-1.912228E-1,-1.6082664E-1,1.6137168E-1,2.5757232E-1,-7.7492964E-1,-1.3946209E0,-6.2405434E-2,1.3363227E-2,5.5584658E-2,4.5226563E-2,-3.0249188E-2,-4.995897E-3,-3.5164155E-2,-6.58641E-3,2.1838905E-2,2.1435944E-2,-1.0174625E-2,5.8595752E-3,-9.101848E-2,-9.201721E-2,-6.9058925E-2],"categories":[],"categories_nodes":[],"categories_segments":[],"categories_sizes":[],"default_left":[0,0,0,0,0,0,0,0,0,0,0,0,0,0,0,0,0,0,0,0,0,0,0,0,0,0,0,0,0],"id":24,"left_children":[1,3,5,7,9,11,13,15,17,19,21,23,25,27,-1,-1,-1,-1,-1,-1,-1,-1,-1,-1,-1,-1,-1,-1,-1],"loss_changes":[1.2482792E3,5.623558E2,4.7861987E3,2.3419586E2,4.758138E2,5.0922324E2,1.5106934E1,2.8911285E2,4.8391754E2,3.4913132E2,6.533546E2,4.620348E2,4.8532648E2,7.9489746E0,0E0,0E0,0E0,0E0,0E0,0E0,0E0,0E0,0E0,0E0,0E0,0E0,0E0,0E0,0E0],"parents":[2147483647,0,0,1,1,2,2,3,3,4,4,5,5,6,6,7,7,8,8,9,9,10,10,11,11,12,12,13,13],"right_children":[2,4,6,8,10,12,14,16,18,20,22,24,26,28,-1,-1,-1,-1,-1,-1,-1,-1,-1,-1,-1,-1,-1,-1,-1],"split_conditions":[1.501186E-2,1.225244E-2,1.1945546E-1,6.060606E-1,1.2043676E-1,5.862069E-1,5.611565E-2,1.8949406E-1,9.50722E-3,4.833575E-2,1.401325E-2,2.564914E-1,2.06916E-2,1.2043676E-1,-6.2405434E-2,1.3363227E-2,5.5584658E-2,4.5226563E-2,-3.0249188E-2,-4.995897E-3,-3.5164155E-2,-6.58641E-3,2.1838905E-2,2.1435944E-2,-1.0174625E-2,5.8595752E-3,-9.101848E-2,-9.201721E-2,-6.9058925E-2],"split_indices":[11,11,10,8,10,9,7,10,11,7,11,5,12,10,0,0,0,0,0,0,0,0,0,0,0,0,0,0,0],"split_type":[0,0,0,0,0,0,0,0,0,0,0,0,0,0,0,0,0,0,0,0,0,0,0,0,0,0,0,0,0],"sum_hessian":[4.022303E4,3.067539E4,9.547641E3,1.2015224E4,1.8660168E4,6.372271E3,3.1753694E3,1.0950076E4,1.0651478E3,1.0567953E4,8.0922134E3,5.8531313E3,5.191399E2,1.7499435E3,1.4254259E3,1.0529249E4,4.208271E2,2.916339E2,7.7351385E2,9.502201E3,1.0657527E3,3.9204336E3,4.17178E3,4.2686753E3,1.5844558E3,2.8058875E2,2.3855115E2,4.725213E1,1.7026914E3],"tree_param":{"num_deleted":"0","num_feature":"13","num_nodes":"29","size_leaf_vector":"1"}},{"base_weights":[1.684092E-2,1.1409113E-1,-2.9537854E-1,-1.01700954E-1,1.2194234E-1,1.6384302E-1,-1.2734035E0,3.287334E-1,4.293687E-2,-9.439207E-2,1.9430295E-1,2.286669E-1,-1.3055507E0,1.8272176E-2,-2.7034903E-2,-8.835018E-5,2.2347579E-2,2.2067007E-2,-2.745864E-3,-6.271016E-2,9.250099E-2,-6.807914E-2,-6.183345E-2],"categories":[],"categories_nodes":[],"categories_segments":[],"categories_sizes":[],"default_left":[0,0,0,0,0,0,0,0,0,0,0,0,0,0,0,0,0,0,0,0,0,0,0],"id":25,"left_children":[1,3,5,-1,7,9,11,13,15,-1,17,19,21,-1,-1,-1,-1,-1,-1,-1,-1,-1,-1],"loss_changes":[1.235004E3,5.2330347E2,4.3389077E3,0E0,5.0484717E2,4.112365E2,1.4934668E2,2.7284216E2,4.038531E2,0E0,3.989303E2,1.5986613E2,9.980469E0,0E0,0E0,0E0,0E0,0E0,0E0,0E0,0E0,0E0,0E0],"parents":[2147483647,0,0,1,1,2,2,4,4,5,5,6,6,7,7,8,8,10,10,11,11,12,12],"right_children":[2,4,6,-1,8,10,12,14,16,-1,18,20,22,-1,-1,-1,-1,-1,-1,-1,-1,-1,-1],"split_conditions":[1.498236E-2,3.4560502E-1,1.2043676E-1,-1.01700954E-1,1.15999E-2,-1.394214E0,2.3076923E-1,6.315789E-1,1.474393E-2,-9.439207E-2,-6.027162E-1,2.2727273E-1,5.611565E-2,1.8272176E-2,-2.7034903E-2,-8.835018E-5,2.2347579E-2,2.2067007E-2,-2.745864E-3,-6.271016E-2,9.250099E-2,-6.807914E-2,-6.183345E-2],"split_indices":[11,0,10,0,11,5,9,8,11,0,6,9,7,0,0,0,0,0,0,0,0,0,0],"split_type":[0,0,0,0,0,0,0,0,0,0,0,0,0,0,0,0,0,0,0,0,0,0,0],"sum_hessian":[4.067198E4,3.1012752E4,9.659227E3,1.11997185E2,3.0900756E4,6.5735273E3,3.0856995E3,8.541318E3,2.2359438E4,9.527286E1,6.4782544E3,6.452791E1,3.0211716E3,8.195844E3,3.454744E2,2.0132762E4,2.2266768E3,3.2529893E3,3.2252654E3,3.3821564E1,3.0706348E1,1.6556262E3,1.3655454E3],"tree_param":{"num_deleted":"0","num_feature":"13","num_nodes":"23","size_leaf_vector":"1"}},{"base_weights":[-1.2616018E-2,8.693125E-2,-3.251E-1,5.490482E-1,4.235555E-2,9.9288456E-2,-1.2134703E0,-6.0335927E-2,6.8821114E-1,3.536985E-1,-5.067087E-3,-7.9946417E-1,1.8691511E-1,1.1661633E0,-1.241738E0,3.9676663E-2,-2.6826857E-2,-1.2779987E-1,3.57227E-2,6.9102286E-3,3.523131E-2,3.6025452E-4,-4.8522618E-2,-5.5486202E-2,7.945342E-2,2.3092633E-2,-5.5095153E-3,8.530306E-2,-5.8255263E-2,-3.0544752E-2,-6.403523E-2],"categories":[],"categories_nodes":[],"categories_segments":[],"categories_sizes":[],"default_left":[0,0,0,0,0,0,0,0,0,0,0,0,0,0,0,0,0,0,0,0,0,0,0,0,0,0,0,0,0,0,0],"id":26,"left_children":[1,3,5,7,9,11,13,15,17,19,21,23,25,27,29,-1,-1,-1,-1,-1,-1,-1,-1,-1,-1,-1,-1,-1,-1,-1,-1],"loss_changes":[1.2401671E3,6.228105E2,3.6315652E3,2.2560919E2,4.0716742E2,5.1356494E2,2.109126E2,2.0187007E2,1.8618738E2,2.7556384E2,2.8354733E2,4.310859E2,4.8533112E2,4.8648235E1,7.487744E1,0E0,0E0,0E0,0E0,0E0,0E0,0E0,0E0,0E0,0E0,0E0,0E0,0E0,0E0,0E0,0E0],"parents":[2147483647,0,0,1,1,2,2,3,3,4,4,5,5,6,6,7,7,8,8,9,9,10,10,11,11,12,12,13,13,14,14],"right_children":[2,4,6,8,10,12,14,16,18,20,22,24,26,28,30,-1,-1,-1,-1,-1,-1,-1,-1,-1,-1,-1,-1,-1,-1,-1,-1],"split_conditions":[1.493381E-2,9.93431E-3,1.2043676E-1,4.2857143E-1,-1.0894353E0,1.522728E-2,8.2071E-4,3.0434784E-1,2.02382E-3,1.399801E-2,1.5055841E0,1.5258578E0,-6.027162E-1,2.0664E-4,1.501186E-2,3.9676663E-2,-2.6826857E-2,-1.2779987E-1,3.57227E-2,6.9102286E-3,3.523131E-2,3.6025452E-4,-4.8522618E-2,-5.5486202E-2,7.945342E-2,2.3092633E-2,-5.5095153E-3,8.530306E-2,-5.8255263E-2,-3.0544752E-2,-6.403523E-2],"split_indices":[11,11,10,8,4,11,12,8,7,11,3,3,6,3,11,0,0,0,0,0,0,0,0,0,0,0,0,0,0,0,0],"split_type":[0,0,0,0,0,0,0,0,0,0,0,0,0,0,0,0,0,0,0,0,0,0,0,0,0,0,0,0,0,0,0],"sum_hessian":[3.986596E4,3.0234842E4,9.631119E3,2.6588801E3,2.7575963E4,6.5181733E3,3.1129458E3,4.9441968E2,2.1644604E3,3.644214E3,2.3931748E4,5.783312E2,5.9398423E3,3.6071953E1,3.0768738E3,1.7677704E2,3.1764264E2,1.6594603E1,2.147866E3,2.258644E3,1.3855701E3,2.3632322E4,2.9942645E2,5.1231866E2,6.601254E1,3.0847239E3,2.8551184E3,2.9506691E1,6.5652623E0,1.7996973E2,2.896904E3],"tree_param":{"num_deleted":"0","num_feature":"13","num_nodes":"31","size_leaf_vector":"1"}},{"base_weights":[2.1706715E-2,1.1398866E-1,-2.8409338E-1,1.1962135E-1,-9.65986E-2,1.4794864E-1,-1.2410923E0,3.4012192E-1,7.512865E-2,-8.538239E-2,1.8141934E-1,-1.0751593E-1,-1.2704754E0,-3.962721E-3,2.3898624E-2,4.098862E-3,-7.301819E-2,-9.614133E-2,1.0414497E-2,8.575793E-2,-7.902481E-2,-6.608831E-2,-6.028479E-2],"categories":[],"categories_nodes":[],"categories_segments":[],"categories_sizes":[],"default_left":[0,0,0,0,0,0,0,0,0,0,0,0,0,0,0,0,0,0,0,0,0,0,0],"id":27,"left_children":[1,3,5,7,-1,9,11,13,15,-1,17,19,21,-1,-1,-1,-1,-1,-1,-1,-1,-1,-1],"loss_changes":[1.1404376E3,3.5799185E2,3.8736487E3,3.0371127E2,0E0,4.012386E2,9.692285E1,3.0053595E2,2.7104187E2,0E0,3.5898425E2,2.0330817E2,7.84375E0,0E0,0E0,0E0,0E0,0E0,0E0,0E0,0E0,0E0,0E0],"parents":[2147483647,0,0,1,1,2,2,3,3,5,5,6,6,7,7,8,8,10,10,11,11,12,12],"right_children":[2,4,6,8,-1,10,12,14,16,-1,18,20,22,-1,-1,-1,-1,-1,-1,-1,-1,-1,-1],"split_conditions":[1.498236E-2,6.5657926E-1,1.1981917E-1,1.088662E-2,-9.65986E-2,1.505895E-2,1.501186E-2,1.371056E-2,8E0,-8.538239E-2,6.287672E-2,3.0769232E-1,5.611565E-2,-3.962721E-3,2.3898624E-2,4.098862E-3,-7.301819E-2,-9.614133E-2,1.0414497E-2,8.575793E-2,-7.902481E-2,-6.608831E-2,-6.028479E-2],"split_indices":[11,0,10,11,0,11,11,12,2,0,10,8,7,0,0,0,0,0,0,0,0,0,0],"split_type":[0,0,0,0,0,0,0,0,0,0,0,0,0,0,0,0,0,0,0,0,0,0,0],"sum_hessian":[4.0410484E4,3.1043152E4,9.367331E3,3.0958861E4,8.429059E1,6.4543345E3,2.9129966E3,5.1969155E3,2.5761947E4,1.1347241E2,6.340862E3,7.371697E1,2.8392795E3,1.285753E3,3.9111624E3,2.5648496E4,1.1345061E2,7.906033E1,6.261802E3,3.287403E1,4.0842937E1,1.5737924E3,1.2654873E3],"tree_param":{"num_deleted":"0","num_feature":"13","num_nodes":"23","size_leaf_vector":"1"}},{"base_weights":[3.762105E-2,1.2653351E-1,-2.686435E-1,3.7157843E-1,7.387871E-2,1.4094083E-1,-1.2479134E0,1.1133854E0,3.0680496E-1,-1.5266287E-2,2.5181922E-1,-9.261188E-1,1.8098451E-1,-6.463498E-2,-5.957218E-2,-1.1858404E-1,6.1371114E-2,-1.2265336E-1,1.6436063E-2,3.029465E-3,-1.4396422E-2,-2.563334E-4,2.395858E-2,-9.3316965E-2,4.791665E-2,-5.2909452E-2,1.0654957E-2],"categories":[],"categories_nodes":[],"categories_segments":[],"categories_sizes":[],"default_left":[0,0,0,0,0,0,0,0,0,0,0,0,0,0,0,0,0,0,0,0,0,0,0,0,0,0,0],"id":28,"left_children":[1,3,5,7,9,11,13,15,17,19,21,23,25,-1,-1,-1,-1,-1,-1,-1,-1,-1,-1,-1,-1,-1,-1],"loss_changes":[1.1072494E3,4.065758E2,3.6696567E3,2.6746155E2,4.1148242E2,2.7583658E2,5.2836914E0,1.8064233E2,3.109363E2,3.574845E2,5.0578748E2,4.1553088E2,2.4771635E2,0E0,0E0,0E0,0E0,0E0,0E0,0E0,0E0,0E0,0E0,0E0,0E0,0E0,0E0],"parents":[2147483647,0,0,1,1,2,2,3,3,4,4,5,5,6,6,7,7,8,8,9,9,10,10,11,11,12,12],"right_children":[2,4,6,8,10,12,14,16,18,20,22,24,26,-1,-1,-1,-1,-1,-1,-1,-1,-1,-1,-1,-1,-1,-1],"split_conditions":[1.501186E-2,1.092314E-2,1.2043676E-1,-1.3359576E0,1.396379E-2,3.40408E-3,5.611565E-2,8.3609194E-1,-1.2390679E0,1.334908E-2,1.2043676E-1,1.1270981E-1,8.030645E-1,-6.463498E-2,-5.957218E-2,-1.1858404E-1,6.1371114E-2,-1.2265336E-1,1.6436063E-2,3.029465E-3,-1.4396422E-2,-2.563334E-4,2.395858E-2,-9.3316965E-2,4.791665E-2,-5.2909452E-2,1.0654957E-2],"split_indices":[11,11,10,5,11,12,7,1,5,11,10,10,1,0,0,0,0,0,0,0,0,0,0,0,0,0,0],"split_type":[0,0,0,0,0,0,0,0,0,0,0,0,0,0,0,0,0,0,0,0,0,0,0,0,0,0,0],"sum_hessian":[4.0659508E4,3.1511814E4,9.14769E3,5.572492E3,2.5939322E4,6.4505664E3,2.6971243E3,4.4620605E2,5.126286E3,1.7282178E4,8.6571455E3,2.3251521E2,6.2180513E3,1.4919607E3,1.2051635E3,1.3510669E1,4.326954E2,3.951346E1,5.086773E3,1.3521285E4,3.760892E3,4.06453E3,4.5926157E3,1.551266E2,7.738861E1,1.562701E2,6.0617812E3],"tree_param":{"num_deleted":"0","num_feature":"13","num_nodes":"27","size_leaf_vector":"1"}},{"base_weights":[4.012883E-3,7.429633E-2,-2.15818E-1,4.2984687E-2,5.270256E-1,-1.10010296E-1,-1.067842E0,2.3208192E-1,-3.2523952E-2,-1.0188967E-1,5.719897E-1,-4.688093E-2,-8.9868486E-1,-3.415584E-1,-1.2498603E0,-1.1025551E-2,1.6066698E-2,-3.5360005E-2,-3.9317005E-5,-1.01033986E-1,3.0862063E-2,-7.7325716E-3,2.5826106E-2,-5.151865E-2,6.13069E-2,-6.170137E-2,4.8411146E-2,-8.6255364E-2,-6.1220326E-2],"categories":[],"categories_nodes":[],"categories_segments":[],"categories_sizes":[],"default_left":[0,0,0,0,0,0,0,0,0,0,0,0,0,0,0,0,0,0,0,0,0,0,0,0,0,0,0,0,0],"id":29,"left_children":[1,3,5,7,9,11,13,15,17,-1,19,21,23,25,27,-1,-1,-1,-1,-1,-1,-1,-1,-1,-1,-1,-1,-1,-1],"loss_changes":[6.151327E2,4.2762918E2,8.694038E2,4.02911E2,2.2621246E2,4.2718564E2,1.4040894E2,3.253445E2,4.3181003E2,0E0,2.2633911E2,4.8254416E2,1.7919513E2,2.5235995E2,8.18811E0,0E0,0E0,0E0,0E0,0E0,0E0,0E0,0E0,0E0,0E0,0E0,0E0,0E0,0E0],"parents":[2147483647,0,0,1,1,2,2,3,3,4,4,5,5,6,6,7,7,8,8,10,10,11,11,12,12,13,13,14,14],"right_children":[2,4,6,8,10,12,14,16,18,-1,20,22,24,26,28,-1,-1,-1,-1,-1,-1,-1,-1,-1,-1,-1,-1,-1,-1],"split_conditions":[1.493381E-2,1.474393E-2,6.66031E-2,1.156782E-2,3.32829E-3,6.020211E-2,3.7931034E-1,1.069721E-2,-5E0,-1.0188967E-1,8.007827E-1,4.834401E-2,6.604598E-2,8.695367E-2,1.501186E-2,-1.1025551E-2,1.6066698E-2,-3.5360005E-2,-3.9317005E-5,-1.01033986E-1,3.0862063E-2,-7.7325716E-3,2.5826106E-2,-5.151865E-2,6.13069E-2,-6.170137E-2,4.8411146E-2,-8.6255364E-2,-6.1220326E-2],"split_indices":[11,11,7,11,12,12,9,7,2,0,1,12,7,12,11,0,0,0,0,0,0,0,0,0,0,0,0,0,0],"split_type":[0,0,0,0,0,0,0,0,0,0,0,0,0,0,0,0,0,0,0,0,0,0,0,0,0,0,0,0,0],"sum_hessian":[3.9811156E4,3.0166957E4,9.644196E3,2.8216541E4,1.9504166E3,8.579847E3,1.0643501E3,8.051356E3,2.0165186E4,3.2840275E1,1.9175763E3,7.944953E3,6.3489343E2,2.1386588E2,8.5048425E2,1.3259672E3,6.7253887E3,9.050212E2,1.9260164E4,3.2145725E1,1.8854305E3,6.669839E3,1.2751141E3,5.983266E2,3.656683E1,1.2723044E2,8.663543E1,3.9841133E1,8.106431E2],"tree_param":{"num_deleted":"0","num_feature":"13","num_nodes":"29","size_leaf_vector":"1"}},{"base_weights":[1.5286957E-2,9.861374E-2,-2.7829874E-1,7.797057E-1,7.760519E-2,1.07707106E-1,-1.2288097E0,-1.3004878E-1,8.606392E-1,-1.8911874E-1,1.14647694E-1,1.809314E-1,-4.3131247E-1,-6.3600056E-2,-5.863458E-2,4.6127476E-2,-1.13011144E-1,-8.385255E-2,-2.1422543E-3,2.3761522E-2,3.2582288E-3,3.7613169E-3,4.2065162E-2,-5.38517E-2,4.0534597E-2],"categories":[],"categories_nodes":[],"categories_segments":[],"categories_sizes":[],"default_left":[0,0,0,0,0,0,0,0,0,0,0,0,0,0,0,0,0,0,0,0,0,0,0,0,0],"id":30,"left_children":[1,3,5,7,9,11,13,-1,15,17,19,21,23,-1,-1,-1,-1,-1,-1,-1,-1,-1,-1,-1,-1],"loss_changes":[9.772665E2,4.4517303E2,3.2404626E3,2.5695886E2,2.98265E2,2.4801671E2,4.690674E0,0E0,1.7789886E2,8.0116846E2,4.7290567E2,3.860407E2,6.036469E2,0E0,0E0,0E0,0E0,0E0,0E0,0E0,0E0,0E0,0E0,0E0,0E0],"parents":[2147483647,0,0,1,1,2,2,3,3,4,4,5,5,6,6,8,8,9,9,10,10,11,11,12,12],"right_children":[2,4,6,8,10,12,14,-1,16,18,20,22,24,-1,-1,-1,-1,-1,-1,-1,-1,-1,-1,-1,-1],"split_conditions":[1.501186E-2,8.82635E-3,1.2043676E-1,4.691176E-2,8.2426137E-1,5.542765E-2,5.611565E-2,-1.3004878E-1,1.160762E0,9.02838E-3,8.34767E-1,4.834401E-2,2.1296713E0,-6.3600056E-2,-5.863458E-2,4.6127476E-2,-1.13011144E-1,-8.385255E-2,-2.1422543E-3,2.3761522E-2,3.2582288E-3,3.7613169E-3,4.2065162E-2,-5.38517E-2,4.0534597E-2],"split_indices":[11,11,10,10,1,12,7,0,5,12,1,12,6,0,0,0,0,0,0,0,0,0,0,0,0],"split_type":[0,0,0,0,0,0,0,0,0,0,0,0,0,0,0,0,0,0,0,0,0,0,0,0,0],"sum_hessian":[3.9945734E4,3.1115158E4,8.830577E3,9.2996045E2,3.0185197E4,6.280806E3,2.5497708E3,2.1014732E1,9.0894574E2,3.6804045E3,2.6504793E4,5.530207E3,7.5059875E2,1.4285897E3,1.1211812E3,8.9195593E2,1.6989824E1,3.2848703E2,3.3519175E3,3.1973262E3,2.3307467E4,4.7680967E3,7.621106E2,4.93934E2,2.566648E2],"tree_param":{"num_deleted":"0","num_feature":"13","num_nodes":"25","size_leaf_vector":"1"}},{"base_weights":[4.288617E-3,4.6320494E-2,-4.4610083E-1,1.336103E-1,-5.012376E-2,-1.4351922E0,-2.8280094E-1,-1.4195347E0,1.5010293E-1,1.3141651E-1,-1.7144646E-1,-1.6695883E0,1.130426E0,6.385737E-1,-3.948584E-1,-1.005068E-1,7.943517E-2,5.434336E-3,2.5605535E-2,-1.096218E-2,1.4712271E-2,-3.6259943E-3,-2.446734E-2,-8.4873624E-2,-7.293042E-2,9.658667E-2,-6.9649756E-2,4.3840297E-2,-8.058962E-2,-3.3067636E-2,1.1307414E-4],"categories":[],"categories_nodes":[],"categories_segments":[],"categories_sizes":[],"default_left":[0,0,0,0,0,0,0,0,0,0,0,0,0,0,0,0,0,0,0,0,0,0,0,0,0,0,0,0,0,0,0],"id":31,"left_children":[1,3,5,7,9,11,13,15,17,19,21,23,25,27,29,-1,-1,-1,-1,-1,-1,-1,-1,-1,-1,-1,-1,-1,-1,-1,-1],"loss_changes":[7.4854E2,3.0447223E2,5.447395E2,4.8650076E2,3.7846994E2,2.8935956E2,2.994718E2,3.5775916E2,2.8159637E2,3.9310736E2,3.238858E2,1.03149414E-1,8.4812195E1,1.7008926E2,2.7351633E2,0E0,0E0,0E0,0E0,0E0,0E0,0E0,0E0,0E0,0E0,0E0,0E0,0E0,0E0,0E0,0E0],"parents":[2147483647,0,0,1,1,2,2,3,3,4,4,5,5,6,6,7,7,8,8,9,9,10,10,11,11,12,12,13,13,14,14],"right_children":[2,4,6,8,10,12,14,16,18,20,22,24,26,28,30,-1,-1,-1,-1,-1,-1,-1,-1,-1,-1,-1,-1,-1,-1,-1,-1],"split_conditions":[1.7428818E-1,1E0,1.835166E-1,3.1578946E-1,-5.712083E-1,2.4034736E0,-6E0,1.5258578E0,1.8862638E0,1.975538E-2,1.0002223E0,6.845623E-2,4.3409058E-1,5.16129E-1,8.710156E-2,-1.005068E-1,7.943517E-2,5.434336E-3,2.5605535E-2,-1.096218E-2,1.4712271E-2,-3.6259943E-3,-2.446734E-2,-8.4873624E-2,-7.293042E-2,9.658667E-2,-6.9649756E-2,4.3840297E-2,-8.058962E-2,-3.3067636E-2,1.1307414E-4],"split_indices":[10,2,10,9,5,5,2,3,6,12,3,12,3,8,4,0,0,0,0,0,0,0,0,0,0,0,0,0,0,0,0],"split_type":[0,0,0,0,0,0,0,0,0,0,0,0,0,0,0,0,0,0,0,0,0,0,0,0,0,0,0,0,0,0,0],"sum_hessian":[3.953894E4,3.6164816E4,3.3741265E3,1.8983152E4,1.7181662E4,4.770278E2,2.8970986E3,1.985676E2,1.8784584E4,6.882702E3,1.0298961E4,4.374146E2,3.961317E1,3.136297E2,2.583469E3,1.6625824E2,3.230936E1,1.6857293E4,1.9272913E3,2.1824155E3,4.7002866E3,7.855619E3,2.4433416E3,3.801292E2,5.7285393E1,3.0243793E1,9.369377E0,2.8415805E2,2.9471668E1,1.5456008E3,1.0378682E3],"tree_param":{"num_deleted":"0","num_feature":"13","num_nodes":"31","size_leaf_vector":"1"}},{"base_weights":[4.2961825E-2,1.117451E-1,-1.912914E-1,3.9480326E-1,6.876314E-2,1.8116681E-1,-1.181792E0,-8.7381023E-1,4.3470457E-1,-1.4392832E-1,1.2045914E-1,-9.746661E-2,4.2869538E-1,-1.219962E-1,-1.2138957E0,-1.2013254E-1,4.925583E-2,-1.0330659E-1,2.267984E-2,1.67595E-2,-1.4842041E-2,8.478775E-3,-5.771467E-3,-2.9671459E-2,6.6343094E-3,-7.1354344E-4,3.4398038E-2,8.072521E-2,-7.6339945E-2,-6.270325E-2,-5.80627E-2],"categories":[],"categories_nodes":[],"categories_segments":[],"categories_sizes":[],"default_left":[0,0,0,0,0,0,0,0,0,0,0,0,0,0,0,0,0,0,0,0,0,0,0,0,0,0,0,0,0,0,0],"id":32,"left_children":[1,3,5,7,9,11,13,15,17,19,21,23,25,27,29,-1,-1,-1,-1,-1,-1,-1,-1,-1,-1,-1,-1,-1,-1,-1,-1],"loss_changes":[6.4886395E2,3.787051E2,3.3723782E3,2.0810052E2,2.9718497E2,4.5825073E2,8.484204E1,3.5893927E2,1.8893579E2,3.872981E2,2.5193063E2,3.569316E2,4.0408002E2,1.843431E2,3.6706543E0,0E0,0E0,0E0,0E0,0E0,0E0,0E0,0E0,0E0,0E0,0E0,0E0,0E0,0E0,0E0,0E0],"parents":[2147483647,0,0,1,1,2,2,3,3,4,4,5,5,6,6,7,7,8,8,9,9,10,10,11,11,12,12,13,13,14,14],"right_children":[2,4,6,8,10,12,14,16,18,20,22,24,26,28,30,-1,-1,-1,-1,-1,-1,-1,-1,-1,-1,-1,-1,-1,-1,-1,-1],"split_conditions":[1.498236E-2,1.050547E-2,1.2043676E-1,3.1578946E-1,4.090909E-1,9.832111E-2,1.501186E-2,1.6483451E0,2.631579E-1,-9.3820184E-1,8.3061665E-1,-4.2670134E-1,1.623439E-2,3.0769232E-1,5.611565E-2,-1.2013254E-1,4.925583E-2,-1.0330659E-1,2.267984E-2,1.67595E-2,-1.4842041E-2,8.478775E-3,-5.771467E-3,-2.9671459E-2,6.6343094E-3,-7.1354344E-4,3.4398038E-2,8.072521E-2,-7.6339945E-2,-6.270325E-2,-5.80627E-2],"split_indices":[11,11,10,9,9,10,11,4,8,4,4,4,11,8,7,0,0,0,0,0,0,0,0,0,0,0,0,0,0,0,0],"split_type":[0,0,0,0,0,0,0,0,0,0,0,0,0,0,0,0,0,0,0,0,0,0,0,0,0,0,0,0,0,0,0],"sum_hessian":[4.0268008E4,3.1128373E4,9.139635E3,4.102583E3,2.7025791E4,6.6426235E3,2.4970105E3,1.2446517E2,3.978118E3,5.284037E3,2.1741754E4,3.1252527E3,3.517371E3,7.355729E1,2.4234534E3,6.8135704E1,5.6329468E1,2.9014313E1,3.9491038E3,1.2781228E3,4.0059143E3,1.799512E4,3.746635E3,9.9009393E2,2.1351587E3,1.2989695E3,2.2184016E3,3.2828342E1,4.0728943E1,1.3616189E3,1.0618344E3],"tree_param":{"num_deleted":"0","num_feature":"13","num_nodes":"31","size_leaf_vector":"1"}},{"base_weights":[6.136431E-3,1.6938527E-1,-7.274295E-2,1.9400786E-1,-4.1865742E-1,-1.7759947E0,-6.303996E-2,-6.420139E-3,2.7143767E-1,-9.998221E-2,2.1534747E-1,-9.511865E-2,-1.5218031E0,1.3453056E0,-7.464822E-2,6.1671822E-3,-3.9510783E-2,4.4202242E-2,1.1916354E-2,-9.2971675E-2,2.6195798E-2,-8.337965E-2,-5.6809593E-2,7.629755E-2,-7.740533E-2,-1.9565695E-3,-2.3952072E-2],"categories":[],"categories_nodes":[],"categories_segments":[],"categories_sizes":[],"default_left":[0,0,0,0,0,0,0,0,0,0,0,0,0,0,0,0,0,0,0,0,0,0,0,0,0,0,0],"id":33,"left_children":[1,3,5,7,9,11,13,15,17,-1,19,-1,21,23,25,-1,-1,-1,-1,-1,-1,-1,-1,-1,-1,-1,-1],"loss_changes":[5.0858533E2,1.8638022E2,4.3997644E2,1.9166739E2,5.190696E2,1.9494324E0,4.329948E2,3.5023837E2,1.8049152E2,0E0,2.3799394E2,0E0,1.201622E0,1.1553497E2,3.7720117E2,0E0,0E0,0E0,0E0,0E0,0E0,0E0,0E0,0E0,0E0,0E0,0E0],"parents":[2147483647,0,0,1,1,2,2,3,3,4,4,5,5,6,6,7,7,8,8,10,10,12,12,13,13,14,14],"right_children":[2,4,6,8,10,12,14,16,18,-1,20,-1,22,24,26,-1,-1,-1,-1,-1,-1,-1,-1,-1,-1,-1,-1],"split_conditions":[1.244954E-2,6.141843E-2,2.2727273E-1,3.384933E-2,5.1977694E-1,1.498236E-2,2.3809524E-1,9.1299236E-1,-1.3359576E0,-9.998221E-2,4.5E-1,-9.511865E-2,5.530386E-2,5.833333E-1,6.1538464E-1,6.1671822E-3,-3.9510783E-2,4.4202242E-2,1.1916354E-2,-9.2971675E-2,2.6195798E-2,-8.337965E-2,-5.6809593E-2,7.629755E-2,-7.740533E-2,-1.9565695E-3,-2.3952072E-2],"split_indices":[11,12,9,3,3,11,9,1,5,0,9,0,7,8,9,0,0,0,0,0,0,0,0,0,0,0,0],"split_type":[0,0,0,0,0,0,0,0,0,0,0,0,0,0,0,0,0,0,0,0,0,0,0,0,0,0,0],"sum_hessian":[3.9493785E4,1.2865724E4,2.6628062E4,1.2349302E4,5.1642126E2,1.4980276E2,2.647826E4,3.4415996E3,8.907702E3,1.4720055E2,3.6922073E2,9.5725945E1,5.4076817E1,2.1552296E2,2.6262736E4,2.953471E3,4.8812872E2,4.554442E2,8.452259E3,4.715172E1,3.22069E2,3.68284E1,1.7248419E1,2.033027E2,1.222026E1,2.414338E4,2.119355E3],"tree_param":{"num_deleted":"0","num_feature":"13","num_nodes":"27","size_leaf_vector":"1"}},{"base_weights":[1.0855263E-2,2.9409778E-1,-6.263942E-2,-1.0046246E-1,3.064829E-1,-2.1742186E-2,-3.9618918E-1,7.5656193E-1,2.4990554E-1,-2.5988861E-3,-6.4783907E-1,-1.1209633E-1,-5.830301E-2,4.121614E-2,-1.0761242E-1,1.4274813E-2,-3.534342E-2,1.9165257E-4,-9.227168E-2,8.021559E-2,-4.213825E-2,-4.8677143E-2,4.912375E-3],"categories":[],"categories_nodes":[],"categories_segments":[],"categories_sizes":[],"default_left":[0,0,0,0,0,0,0,0,0,0,0,0,0,0,0,0,0,0,0,0,0,0,0],"id":34,"left_children":[1,3,5,-1,7,9,11,13,15,17,19,21,-1,-1,-1,-1,-1,-1,-1,-1,-1,-1,-1],"loss_changes":[8.2447174E2,2.3338654E2,4.2896216E2,0E0,2.065E2,3.3574997E2,7.5105554E2,1.803294E2,2.457844E2,3.2220605E2,3.6620688E2,4.54886E2,0E0,0E0,0E0,0E0,0E0,0E0,0E0,0E0,0E0,0E0,0E0],"parents":[2147483647,0,0,1,1,2,2,4,4,5,5,6,6,7,7,8,8,9,9,10,10,11,11],"right_children":[2,4,6,-1,8,10,12,14,16,18,20,22,-1,-1,-1,-1,-1,-1,-1,-1,-1,-1,-1],"split_conditions":[1.149879E-2,3.6006007E-1,1.7127474E-1,-1.0046246E-1,8.82635E-3,6.09855E-1,1.498236E-2,1.160762E0,6.315789E-1,7E-1,1.63129E-3,1.835166E-1,-5.830301E-2,4.121614E-2,-1.0761242E-1,1.4274813E-2,-3.534342E-2,1.9165257E-4,-9.227168E-2,8.021559E-2,-4.213825E-2,-4.8677143E-2,4.912375E-3],"split_indices":[11,0,10,0,11,0,11,5,8,8,12,10,0,0,0,0,0,0,0,0,0,0,0],"split_type":[0,0,0,0,0,0,0,0,0,0,0,0,0,0,0,0,0,0,0,0,0,0,0],"sum_hessian":[3.9604152E4,8.158594E3,3.1445557E4,4.2771954E1,8.1158223E3,2.8012012E4,3.4335461E3,9.0489703E2,7.2109253E3,2.7181912E4,8.300996E2,2.5088809E3,9.246654E2,8.849976E2,1.9899424E1,6.952985E3,2.579403E2,2.7088365E4,9.3547005E1,6.5547005E1,7.645526E2,4.9166742E2,2.0172134E3],"tree_param":{"num_deleted":"0","num_feature":"13","num_nodes":"23","size_leaf_vector":"1"}},{"base_weights":[-4.8279124E-3,1.4740513E-1,-8.540496E-2,8.829063E-2,4.9862722E-1,-4.0250294E-2,-4.6054047E-1,1.213625E-1,-9.5311016E-1,6.5567136E-1,-3.6440983E-1,-2.008064E-2,-7.4289817E-1,-5.9338998E-2,-1.2469915E0,-1.3975352E-2,8.395668E-3,-9.388419E-2,-1.3929203E-2,-1.0804986E-1,3.5113197E-2,-4.699984E-2,8.779044E-2,-2.960162E-3,1.8647326E-2,-9.608674E-2,-1.1634039E-2,-1.3665579E-2,5.3061422E-2,-9.945793E-2,-5.775469E-2],"categories":[],"categories_nodes":[],"categories_segments":[],"categories_sizes":[],"default_left":[0,0,0,0,0,0,0,0,0,0,0,0,0,0,0,0,0,0,0,0,0,0,0,0,0,0,0,0,0,0,0],"id":35,"left_children":[1,3,5,7,9,11,13,15,17,19,21,23,25,27,29,-1,-1,-1,-1,-1,-1,-1,-1,-1,-1,-1,-1,-1,-1,-1,-1],"loss_changes":[4.7975833E2,2.8100888E2,4.3319257E2,3.9921027E2,2.6452197E2,3.2350772E2,8.668505E2,2.0964482E2,2.2198221E2,2.1806812E2,3.6878522E2,3.4125262E2,3.8266705E2,4.3678177E2,6.1002197E1,0E0,0E0,0E0,0E0,0E0,0E0,0E0,0E0,0E0,0E0,0E0,0E0,0E0,0E0,0E0,0E0],"parents":[2147483647,0,0,1,1,2,2,3,3,4,4,5,5,6,6,7,7,8,8,9,9,10,10,11,11,12,12,13,13,14,14],"right_children":[2,4,6,8,10,12,14,16,18,20,22,24,26,28,30,-1,-1,-1,-1,-1,-1,-1,-1,-1,-1,-1,-1,-1,-1,-1,-1],"split_conditions":[1.256298E-2,5.876205E-1,1.7428818E-1,6.89069E-2,4E0,6.09855E-1,1.481451E-2,3.6363637E-1,5.3290874E-1,-1.1973835E0,1.252112E-2,1.7004005E0,1.2590799E-1,1.471082E-2,1.498236E-2,-1.3975352E-2,8.395668E-3,-9.388419E-2,-1.3929203E-2,-1.0804986E-1,3.5113197E-2,-4.699984E-2,8.779044E-2,-2.960162E-3,1.8647326E-2,-9.608674E-2,-1.1634039E-2,-1.3665579E-2,5.3061422E-2,-9.945793E-2,-5.775469E-2],"split_indices":[11,0,10,7,2,0,11,8,0,4,11,4,10,11,11,0,0,0,0,0,0,0,0,0,0,0,0,0,0,0,0],"split_type":[0,0,0,0,0,0,0,0,0,0,0,0,0,0,0,0,0,0,0,0,0,0,0,0,0,0,0,0,0,0,0],"sum_hessian":[3.9109273E4,1.353568E4,2.5573594E4,1.1586754E4,1.9489258E3,2.2827035E4,2.7465588E3,1.1230975E4,3.557797E2,1.6490869E3,2.998389E2,2.2191064E4,6.359705E2,1.8194547E3,9.271042E2,1.1679812E3,1.0062993E4,1.4932121E2,2.0645847E2,2.6096394E1,1.6229905E3,2.3625748E2,6.3581413E1,2.0182875E4,2.0081885E3,1.9127374E2,4.4469678E2,1.5283685E3,2.9108618E2,9.987424E1,8.2723E2],"tree_param":{"num_deleted":"0","num_feature":"13","num_nodes":"31","size_leaf_vector":"1"}},{"base_weights":[-1.0133786E-2,4.6323366E-2,-2.0788589E-1,6.2462217E-1,3.0345518E-2,-4.1509166E-2,-7.8094107E-1,7.2826904E-1,-2.3057613E0,2.0259461E-1,-1.6279165E-2,-8.5497224E-1,3.783004E-2,-9.793602E-1,-1.3029352E-1,-1.1715342E-1,3.9395582E-2,-1.3558696E-1,-9.222402E-2,1.2434426E-2,-6.7912295E-2,1.6225867E-3,-1.0393391E-2,5.019961E-3,-7.812693E-2,4.4954773E-3,-4.3940775E-2,-6.718754E-2,-3.749612E-2,-7.2923794E-2,1.8316207E-2],"categories":[],"categories_nodes":[],"categories_segments":[],"categories_sizes":[],"default_left":[0,0,0,0,0,0,0,0,0,0,0,0,0,0,0,0,0,0,0,0,0,0,0,0,0,0,0,0,0,0,0],"id":36,"left_children":[1,3,5,7,9,11,13,15,17,19,21,23,25,27,29,-1,-1,-1,-1,-1,-1,-1,-1,-1,-1,-1,-1,-1,-1,-1,-1],"loss_changes":[4.35688E2,2.8048434E2,8.262942E2,2.4956427E2,2.3726042E2,4.3359802E2,2.5162488E2,1.4638242E2,2.644348E-1,4.5310577E2,2.1707744E2,4.0373907E2,2.9232462E2,1.2391345E2,3.0187933E2,0E0,0E0,0E0,0E0,0E0,0E0,0E0,0E0,0E0,0E0,0E0,0E0,0E0,0E0,0E0,0E0],"parents":[2147483647,0,0,1,1,2,2,3,3,4,4,5,5,6,6,7,7,8,8,9,9,10,10,11,11,12,12,13,13,14,14],"right_children":[2,4,6,8,10,12,14,16,18,20,22,24,26,28,30,-1,-1,-1,-1,-1,-1,-1,-1,-1,-1,-1,-1,-1,-1,-1,-1],"split_conditions":[1.501186E-2,8.82635E-3,4.800832E-2,8.970763E-1,-9.158091E-1,1.531146E-2,2.0886154E0,3.478261E-1,1.473642E0,6.388889E-1,3E0,-1.0429952E0,5.779326E-2,5.110654E-1,4.642857E-1,-1.1715342E-1,3.9395582E-2,-1.3558696E-1,-9.222402E-2,1.2434426E-2,-6.7912295E-2,1.6225867E-3,-1.0393391E-2,5.019961E-3,-7.812693E-2,4.4954773E-3,-4.3940775E-2,-6.718754E-2,-3.749612E-2,-7.2923794E-2,1.8316207E-2],"split_indices":[11,11,7,5,4,11,6,8,5,8,2,6,12,0,8,0,0,0,0,0,0,0,0,0,0,0,0,0,0,0,0],"split_type":[0,0,0,0,0,0,0,0,0,0,0,0,0,0,0,0,0,0,0,0,0,0,0,0,0,0,0,0,0,0,0],"sum_hessian":[3.9022473E4,3.0356594E4,8.665878E3,8.151497E2,2.9541445E4,6.716833E3,1.9490446E3,7.880288E2,2.7120878E1,6.292232E3,2.3249213E4,5.9602515E2,6.120808E3,1.4931835E3,4.5586108E2,1.4282001E1,7.737468E2,1.1830254E1,1.5290625E1,6.11256E3,1.796722E2,1.8535506E4,4.7137065E3,2.5396892E2,3.420562E2,5.7926016E3,3.2820657E2,5.750457E2,9.181377E2,1.2353508E2,3.32326E2],"tree_param":{"num_deleted":"0","num_feature":"13","num_nodes":"31","size_leaf_vector":"1"}},{"base_weights":[-5.2315868E-3,6.89851E-1,-2.128716E-2,7.4771553E-1,-9.685207E-2,-1.7728158E0,-1.4389507E-2,-1.0800709E-1,7.9823965E-1,-9.3579106E-2,-1.4524491E0,-1.13639735E-1,-9.885629E-3,-2.2486484E-2,4.342649E-2,-8.4560394E-2,-5.5493988E-2,2.2477063E-3,-9.222827E-3],"categories":[],"categories_nodes":[],"categories_segments":[],"categories_sizes":[],"default_left":[0,0,0,0,0,0,0,0,0,0,0,0,0,0,0,0,0,0,0],"id":37,"left_children":[1,3,5,7,-1,9,11,-1,13,-1,15,-1,17,-1,-1,-1,-1,-1,-1],"loss_changes":[4.350132E2,1.3522086E2,4.6027097E2,1.2833923E2,0E0,2.0101929E0,3.859996E2,0E0,7.476178E1,0E0,1.3684845E0,0E0,3.6261618E2,0E0,0E0,0E0,0E0,0E0,0E0],"parents":[2147483647,0,0,1,1,2,2,3,3,5,5,6,6,8,8,10,10,12,12],"right_children":[2,4,6,8,-1,10,12,-1,14,-1,16,-1,18,-1,-1,-1,-1,-1,-1],"split_conditions":[8.82635E-3,1.160762E0,2.2222222E-1,3.478261E-1,-9.685207E-2,1.498236E-2,4.480099E-2,-1.0800709E-1,4.817184E-2,-9.3579106E-2,1.2216595E-1,-1.13639735E-1,1.493381E-2,-2.2486484E-2,4.342649E-2,-8.4560394E-2,-5.5493988E-2,2.2477063E-3,-9.222827E-3],"split_indices":[11,5,9,8,0,11,10,0,10,0,10,0,11,0,0,0,0,0,0],"split_type":[0,0,0,0,0,0,0,0,0,0,0,0,0,0,0,0,0,0,0],"sum_hessian":[3.8977535E4,8.7905975E2,3.8098477E4,8.6081335E2,1.8246424E1,1.4844193E2,3.7950035E4,1.3988126E1,8.468252E2,1.0976145E2,3.8680477E1,7.4529755E1,3.7875504E4,4.486523E1,8.0195996E2,2.0473991E1,1.8206486E1,2.8822072E4,9.053432E3],"tree_param":{"num_deleted":"0","num_feature":"13","num_nodes":"19","size_leaf_vector":"1"}},{"base_weights":[2.955867E-2,8.560117E-2,-1.14645995E-1,-1.7000511E-2,2.2878902E-1,-7.991681E-2,-8.921218E-2,-6.032594E-2,5.319075E-1,2.5385946E-1,-9.5857954E-1,-1.2475301E0,-6.36257E-2,-5.5281995E-3,2.0851372E-2,4.314403E-2,-4.8144623E-3,1.4008621E-2,-4.351976E-2,5.204621E-2,-1.04916416E-1,1.194422E-2,-8.30273E-2,-1.5414165E-3,-4.7624957E-2],"categories":[],"categories_nodes":[],"categories_segments":[],"categories_sizes":[],"default_left":[0,0,0,0,0,0,0,0,0,0,0,0,0,0,0,0,0,0,0,0,0,0,0,0,0],"id":38,"left_children":[1,3,5,7,9,-1,11,13,15,17,19,21,23,-1,-1,-1,-1,-1,-1,-1,-1,-1,-1,-1,-1],"loss_changes":[3.2019125E2,4.191656E2,4.1828653E2,3.9533545E2,3.547807E2,0E0,3.2304224E2,3.6952777E2,2.5293295E2,3.4531152E2,5.639006E2,1.4501703E2,3.109709E2,0E0,0E0,0E0,0E0,0E0,0E0,0E0,0E0,0E0,0E0,0E0,0E0],"parents":[2147483647,0,0,1,1,2,2,3,3,4,4,6,6,7,7,8,8,9,9,10,10,11,11,12,12],"right_children":[2,4,6,8,10,-1,12,14,16,18,20,22,24,-1,-1,-1,-1,-1,-1,-1,-1,-1,-1,-1,-1],"split_conditions":[1.2632266E-1,5.143548E-1,7.753091E-1,2.061418E0,9.475797E-1,-7.991681E-2,5.3394E-3,6.0714287E-1,2.3772533E0,1.433553E0,6.181166E-2,-3E0,1.2165703E0,-5.5281995E-3,2.0851372E-2,4.314403E-2,-4.8144623E-3,1.4008621E-2,-4.351976E-2,5.204621E-2,-1.04916416E-1,1.194422E-2,-8.30273E-2,-1.5414165E-3,-4.7624957E-2],"split_indices":[10,0,1,6,1,0,7,9,6,3,10,2,3,0,0,0,0,0,0,0,0,0,0,0,0],"split_type":[0,0,0,0,0,0,0,0,0,0,0,0,0,0,0,0,0,0,0,0,0,0,0,0,0],"sum_hessian":[3.961762E4,2.8530264E4,1.1087357E4,1.6621186E4,1.1909078E4,1.8581699E2,1.0901541E4,1.540607E4,1.2151144E3,1.1663597E4,2.4548227E2,2.3457141E2,1.066697E4,1.3939776E4,1.466294E3,7.955799E2,4.1953445E2,1.1397589E4,2.660076E2,8.9157196E1,1.5632507E2,5.109736E1,1.8347404E2,1.0288387E4,3.7858295E2],"tree_param":{"num_deleted":"0","num_feature":"13","num_nodes":"25","size_leaf_vector":"1"}},{"base_weights":[1.745227E-2,8.404374E-2,-2.2792363E-1,5.2656975E-2,4.68212E-1,-4.7223642E-2,-6.26255E-1,4.2168924E-1,2.2226295E-2,-9.9514705E-1,5.385189E-1,-3.7731105E-1,1.066656E-1,-1.3890519E0,-3.4047955E-1,-1.4535885E-1,2.3590736E-2,1.436816E-3,-7.215338E-2,6.79148E-2,-9.940295E-2,-9.074144E-2,2.8670399E-2,-4.859944E-2,-2.660639E-3,4.5897556E-4,4.231266E-2,-7.670763E-2,2.8419299E-2,6.445114E-2,-2.1781946E-2],"categories":[],"categories_nodes":[],"categories_segments":[],"categories_sizes":[],"default_left":[0,0,0,0,0,0,0,0,0,0,0,0,0,0,0,0,0,0,0,0,0,0,0,0,0,0,0,0,0,0,0],"id":39,"left_children":[1,3,5,7,9,11,13,15,17,19,21,23,25,27,29,-1,-1,-1,-1,-1,-1,-1,-1,-1,-1,-1,-1,-1,-1,-1,-1],"loss_changes":[6.438168E2,3.736554E2,6.053458E2,3.217401E2,2.4134631E2,2.939967E2,5.7166223E2,3.655557E2,2.5253728E2,2.5425183E2,1.8446112E2,3.54631E2,2.846142E2,2.039447E2,2.9682834E2,0E0,0E0,0E0,0E0,0E0,0E0,0E0,0E0,0E0,0E0,0E0,0E0,0E0,0E0,0E0,0E0],"parents":[2147483647,0,0,1,1,2,2,3,3,4,4,5,5,6,6,7,7,8,8,9,9,10,10,11,11,12,12,13,13,14,14],"right_children":[2,4,6,8,10,12,14,16,18,20,22,24,26,28,30,-1,-1,-1,-1,-1,-1,-1,-1,-1,-1,-1,-1,-1,-1,-1,-1],"split_conditions":[1.501186E-2,1.476512E-2,3.8490307E-1,9.79638E-3,5.97851E-3,8.465362E-1,9.594817E-1,-1.9307705E0,8E0,8.2071E-4,7.909981E-1,1.623439E-2,6.1538464E-1,2.000455E-2,3.512829E-1,-1.4535885E-1,2.3590736E-2,1.436816E-3,-7.215338E-2,6.79148E-2,-9.940295E-2,-9.074144E-2,2.8670399E-2,-4.859944E-2,-2.660639E-3,4.5897556E-4,4.231266E-2,-7.670763E-2,2.8419299E-2,6.445114E-2,-2.1781946E-2],"split_indices":[11,11,6,11,12,1,6,6,2,12,1,11,8,11,0,0,0,0,0,0,0,0,0,0,0,0,0,0,0,0,0],"split_type":[0,0,0,0,0,0,0,0,0,0,0,0,0,0,0,0,0,0,0,0,0,0,0,0,0,0,0,0,0,0,0],"sum_hessian":[3.939924E4,3.0989732E4,8.409508E3,2.8650137E4,2.3395955E3,5.785898E3,2.6236099E3,2.1815586E3,2.6468578E4,1.06649605E2,2.2329458E3,1.8392705E3,3.9466274E3,7.139802E2,1.9096296E3,3.1516697E1,2.150042E3,2.6352479E4,1.1609867E2,3.1535292E1,7.511431E1,3.1875158E1,2.2010708E3,6.480976E2,1.191173E3,3.4878953E3,4.58732E2,6.6490826E2,4.9072006E1,1.04672844E2,1.8049568E3],"tree_param":{"num_deleted":"0","num_feature":"13","num_nodes":"31","size_leaf_vector":"1"}},{"base_weights":[-7.5064693E-3,2.409481E-2,-3.5715115E-1,3.4324735E-2,-6.272222E-1,-1.346194E0,-1.9941872E-1,-8.889483E-2,3.771636E-2,-1.5839387E0,4.720973E-1,8.8112664E-1,-7.9562575E-2,5.258343E-2,-7.729447E-1,3.4878395E-2,1.407511E-3,-8.582375E-2,-7.45556E-2,6.6815704E-2,-3.8500063E-2,-7.831051E-2,9.594548E-2,-2.6855827E-3,7.068021E-2,-7.514961E-2,4.1403384E-3],"categories":[],"categories_nodes":[],"categories_segments":[],"categories_sizes":[],"default_left":[0,0,0,0,0,0,0,0,0,0,0,0,0,0,0,0,0,0,0,0,0,0,0,0,0,0,0],"id":40,"left_children":[1,3,5,7,9,11,13,-1,15,17,19,21,-1,23,25,-1,-1,-1,-1,-1,-1,-1,-1,-1,-1,-1,-1],"loss_changes":[4.2816125E2,2.3681242E2,5.008162E2,2.1512859E2,5.787908E2,2.4244678E2,4.0058728E2,0E0,2.2043881E2,1.0587158E0,2.7638242E2,1.1581326E2,0E0,2.787561E2,5.286909E2,0E0,0E0,0E0,0E0,0E0,0E0,0E0,0E0,0E0,0E0,0E0,0E0],"parents":[2147483647,0,0,1,1,2,2,3,3,4,4,5,5,6,6,8,8,9,9,10,10,11,11,13,13,14,14],"right_children":[2,4,6,8,10,12,14,-1,16,18,20,22,-1,24,26,-1,-1,-1,-1,-1,-1,-1,-1,-1,-1,-1,-1],"split_conditions":[1.7428818E-1,8.419986E-2,1.835166E-1,1.904762E-1,8.9554983E-1,2.50048E-3,4.205214E-2,-8.889483E-2,2.4E-1,1.1981917E-1,-6.5146947E-1,2.47887E-3,-7.9562575E-2,4.103271E-2,4.2361784E-1,3.4878395E-2,1.407511E-3,-8.582375E-2,-7.45556E-2,6.6815704E-2,-3.8500063E-2,-7.831051E-2,9.594548E-2,-2.6855827E-3,7.068021E-2,-7.514961E-2,4.1403384E-3],"split_indices":[10,12,10,9,1,12,12,0,9,10,5,12,0,12,5,0,0,0,0,0,0,0,0,0,0,0,0],"split_type":[0,0,0,0,0,0,0,0,0,0,0,0,0,0,0,0,0,0,0,0,0,0,0,0,0,0,0],"sum_hessian":[3.8748582E4,3.5537586E4,3.210996E3,3.498898E4,5.4860785E2,4.4061792E2,2.7703782E3,6.438321E1,3.4924594E4,2.9309344E2,2.5551439E2,4.341596E1,3.9720193E2,1.9253187E3,8.4505945E2,4.9805313E2,3.4426543E4,1.1352026E2,1.7957318E2,1.5063263E2,1.0488176E2,1.277658E1,3.0639378E1,1.786736E3,1.385827E2,4.5561487E2,3.8944455E2],"tree_param":{"num_deleted":"0","num_feature":"13","num_nodes":"27","size_leaf_vector":"1"}},{"base_weights":[8.31227E-3,-1.3890598E0,1.811487E-2,1.0312587E0,-1.7607481E0,1.4558223E-1,-5.1493198E-2,8.234937E-2,-7.401895E-2,-1.9112248E0,-1.3105239E0,1.9073983E-1,-3.8245794E-1,1.3133308E-1,-1.3044763E-1,-1.0743063E-1,-8.592423E-2,-8.063473E-2,-5.5009525E-2,-6.1829753E-2,1.0507836E-2,2.202017E-3,-6.5850966E-2,3.464326E-2,2.9510208E-3,-9.20736E-3,1.252705E-2],"categories":[],"categories_nodes":[],"categories_segments":[],"categories_sizes":[],"default_left":[0,0,0,0,0,0,0,0,0,0,0,0,0,0,0,0,0,0,0,0,0,0,0,0,0,0,0],"id":41,"left_children":[1,3,5,7,9,11,13,-1,-1,15,17,19,21,23,25,-1,-1,-1,-1,-1,-1,-1,-1,-1,-1,-1,-1],"loss_changes":[5.3560974E2,2.4685748E2,3.4452267E2,5.9492058E1,1.3517517E1,3.2709943E2,3.6254736E2,0E0,0E0,4.317871E0,2.1931992E0,3.504279E2,4.3085266E2,3.0755853E2,3.589065E2,0E0,0E0,0E0,0E0,0E0,0E0,0E0,0E0,0E0,0E0,0E0,0E0],"parents":[2147483647,0,0,1,1,2,2,3,3,4,4,5,5,6,6,9,9,10,10,11,11,12,12,13,13,14,14],"right_children":[2,4,6,8,10,12,14,-1,-1,16,18,20,22,24,26,-1,-1,-1,-1,-1,-1,-1,-1,-1,-1,-1,-1],"split_conditions":[7.6780933E-1,2.2727273E-1,-6.459617E-1,6.287672E-2,1.498236E-2,6.141843E-2,1.225244E-2,8.234937E-2,-7.401895E-2,1.2799206E-1,1.2043676E-1,7.909981E-1,5.2E-1,-4E0,1.7004005E0,-1.0743063E-1,-8.592423E-2,-8.063473E-2,-5.5009525E-2,-6.1829753E-2,1.0507836E-2,2.202017E-3,-6.5850966E-2,3.464326E-2,2.9510208E-3,-9.20736E-3,1.252705E-2],"split_indices":[1,8,5,10,11,12,11,0,0,10,10,1,8,2,4,0,0,0,0,0,0,0,0,0,0,0,0],"split_type":[0,0,0,0,0,0,0,0,0,0,0,0,0,0,0,0,0,0,0,0,0,0,0,0,0,0,0],"sum_hessian":[3.9098816E4,2.7138834E2,3.8827426E4,3.5892574E1,2.3549576E2,1.3713664E4,2.5113764E4,2.9102377E1,6.790198E0,1.7407147E2,6.1424282E1,1.2633864E4,1.0797996E3,7.5742417E3,1.7539521E4,7.345425E1,1.0061723E2,2.2472443E1,3.895184E1,1.6871819E2,1.2465146E4,7.420905E2,3.3770905E2,8.631341E2,6.7111074E3,1.5373214E4,2.1663071E3],"tree_param":{"num_deleted":"0","num_feature":"13","num_nodes":"27","size_leaf_vector":"1"}},{"base_weights":[2.7045004E-2,4.543333E-2,-4.078834E-1,2.1912284E-1,6.219727E-4,-1.2445803E0,-3.4596387E-2,2.2917701E-1,-9.859902E-2,7.46566E-2,-1.5307201E-1,-1.6735271E0,8.1299615E-1,2.5165555E-1,-1.5087624E0,1.1850419E-2,-1.12764716E-1,-4.5430192E-4,1.4195599E-2,4.9255495E-3,-5.9122164E-2,3.3856075E-2,-9.134991E-2,7.4654244E-2,-7.844247E-2,-5.4753043E-2,2.373701E-2,-8.3019406E-2,-5.5517286E-2],"categories":[],"categories_nodes":[],"categories_segments":[],"categories_sizes":[],"default_left":[0,0,0,0,0,0,0,0,0,0,0,0,0,0,0,0,0,0,0,0,0,0,0,0,0,0,0,0,0],"id":42,"left_children":[1,3,5,7,9,11,13,15,-1,17,19,21,23,25,27,-1,-1,-1,-1,-1,-1,-1,-1,-1,-1,-1,-1,-1,-1],"loss_changes":[3.160789E2,2.951195E2,5.006697E2,1.7176083E2,3.4298688E2,4.3785168E2,4.686146E2,1.5116214E2,0E0,3.5649323E2,2.5379106E3,1.4899146E2,1.4163199E2,2.799323E2,9.064667E0,0E0,0E0,0E0,0E0,0E0,0E0,0E0,0E0,0E0,0E0,0E0,0E0,0E0,0E0],"parents":[2147483647,0,0,1,1,2,2,3,3,4,4,5,5,6,6,7,7,9,9,10,10,11,11,12,12,13,13,14,14],"right_children":[2,4,6,8,10,12,14,16,-1,18,20,22,24,26,28,-1,-1,-1,-1,-1,-1,-1,-1,-1,-1,-1,-1,-1,-1],"split_conditions":[6.4285713E-1,1.156782E-2,6.666667E-1,6.315789E-1,1.2216595E-1,1.1969641E0,1.5720108E-1,2.7324972E0,-9.859902E-2,1.0548482E-1,1.501186E-2,5.284938E-2,-7.509126E-1,1.736201E-2,1.498236E-2,1.1850419E-2,-1.12764716E-1,-4.5430192E-4,1.4195599E-2,4.9255495E-3,-5.9122164E-2,3.3856075E-2,-9.134991E-2,7.4654244E-2,-7.844247E-2,-5.4753043E-2,2.373701E-2,-8.3019406E-2,-5.5517286E-2],"split_indices":[8,11,8,8,10,3,10,6,0,10,11,10,5,3,11,0,0,0,0,0,0,0,0,0,0,0,0,0,0],"split_type":[0,0,0,0,0,0,0,0,0,0,0,0,0,0,0,0,0,0,0,0,0,0,0,0,0,0,0,0,0],"sum_hessian":[3.9518375E4,3.791621E4,1.602163E3,7.7752666E3,3.0140943E4,4.9355646E2,1.1086064E3,7.740643E3,3.4623543E1,2.0342463E4,9.79848E3,4.085681E2,8.4988335E1,9.2903644E2,1.7956999E2,7.717222E3,2.3421047E1,1.4529006E4,5.813457E3,7.8747583E3,1.9237224E3,2.4830957E1,3.8373715E2,6.640177E1,1.8586565E1,1.3147003E2,7.975664E2,1.27775055E2,5.1794945E1],"tree_param":{"num_deleted":"0","num_feature":"13","num_nodes":"29","size_leaf_vector":"1"}},{"base_weights":[-7.996632E-3,3.782381E-2,-1.9531874E-1,1.0510354E-2,3.2652122E-1,-6.986727E-1,-9.733487E-2,2.8678156E-2,-1.2622122E0,3.884192E-1,-7.7829674E-2,-8.305954E-2,-1.5229521E0,-6.247495E-2,-1.8449458E0,7.2747516E-3,-2.079201E-3,-9.600024E-2,-1.8865664E-2,7.054051E-3,3.814608E-2,1.1942922E-2,-6.4738035E-2,6.1921634E-2,-8.367633E-2,-4.4295634E-3,8.064309E-2,-9.939309E-2,-7.704001E-2],"categories":[],"categories_nodes":[],"categories_segments":[],"categories_sizes":[],"default_left":[0,0,0,0,0,0,0,0,0,0,0,0,0,0,0,0,0,0,0,0,0,0,0,0,0,0,0,0,0],"id":43,"left_children":[1,3,5,7,9,11,13,15,17,19,-1,21,23,25,27,-1,-1,-1,-1,-1,-1,-1,-1,-1,-1,-1,-1,-1,-1],"loss_changes":[3.31514E2,2.4470148E2,3.743175E2,6.556015E2,3.1324545E2,6.2742957E2,3.8705E2,2.2944467E2,2.3154901E2,2.4050931E2,0E0,2.768783E2,2.2189856E2,2.728105E2,2.3380432E0,0E0,0E0,0E0,0E0,0E0,0E0,0E0,0E0,0E0,0E0,0E0,0E0,0E0,0E0],"parents":[2147483647,0,0,1,1,2,2,3,3,4,4,5,5,6,6,7,7,8,8,9,9,11,11,12,12,13,13,14,14],"right_children":[2,4,6,8,10,12,14,16,18,20,-1,22,24,26,28,-1,-1,-1,-1,-1,-1,-1,-1,-1,-1,-1,-1,-1,-1],"split_conditions":[3E0,1.7004005E0,-9.3205047E-1,1.5056314E0,8.12722E-2,-6.391768E-1,2.2092662E0,-6.459617E-1,2E0,9.025261E-1,-7.7829674E-2,8.165444E-1,4.480099E-2,3.0312417E0,1.2544833E-1,7.2747516E-3,-2.079201E-3,-9.600024E-2,-1.8865664E-2,7.054051E-3,3.814608E-2,1.1942922E-2,-6.4738035E-2,6.1921634E-2,-8.367633E-2,-4.4295634E-3,8.064309E-2,-9.939309E-2,-7.704001E-2],"split_indices":[2,4,5,4,12,4,4,5,2,1,0,6,10,5,10,0,0,0,0,0,0,0,0,0,0,0,0,0,0],"split_type":[0,0,0,0,0,0,0,0,0,0,0,0,0,0,0,0,0,0,0,0,0,0,0,0,0,0,0,0,0],"sum_hessian":[3.8621812E4,3.1031953E4,7.5898584E3,2.8350746E4,2.6812073E3,1.2357164E3,6.354142E3,2.7952705E4,3.9804056E2,2.5966492E3,8.455814E1,7.080271E2,5.2768933E2,6.230889E3,1.2325294E2,1.049793E4,1.7454775E4,2.2764795E2,1.7039262E2,1.5646564E3,1.0319928E3,5.600413E2,1.4798578E2,2.6912718E1,5.0077664E2,6.136181E3,9.470792E1,8.008542E1,4.3167522E1],"tree_param":{"num_deleted":"0","num_feature":"13","num_nodes":"29","size_leaf_vector":"1"}},{"base_weights":[7.1767494E-3,2.2831377E-1,-4.5585316E-2,-9.258323E-1,2.605639E-1,-4.0603276E-2,-9.706374E-2,-1.2514202E-1,2.6272107E-3,-9.5664665E-2,2.7269816E-1,-4.6144235E-1,-2.0335935E-2,-1.23043E-1,3.0420719E-2,2.7800117E-2,9.462569E-3,-4.1479614E-2,7.850211E-3,-7.00911E-3,3.3929253E-3],"categories":[],"categories_nodes":[],"categories_segments":[],"categories_sizes":[],"default_left":[0,0,0,0,0,0,0,0,0,0,0,0,0,0,0,0,0,0,0,0,0],"id":44,"left_children":[1,3,5,7,9,11,-1,-1,13,-1,15,17,19,-1,-1,-1,-1,-1,-1,-1,-1],"loss_changes":[4.541694E2,2.793399E2,2.96733E2,2.9877304E2,1.9295807E2,2.6734927E2,0E0,0E0,1.9465637E2,0E0,1.7142493E2,3.280351E2,3.161171E2,0E0,0E0,0E0,0E0,0E0,0E0,0E0,0E0],"parents":[2147483647,0,0,1,1,2,2,3,3,4,4,5,5,8,8,10,10,11,11,12,12],"right_children":[2,4,6,8,10,12,-1,-1,14,-1,16,18,20,-1,-1,-1,-1,-1,-1,-1,-1],"split_conditions":[1.142433E-2,-1.9552766E0,9.655536E-1,5.217391E-1,3.6006007E-1,-5E0,-9.706374E-2,-1.2514202E-1,8.6024064E-1,-9.5664665E-2,6.104261E-2,1.474393E-2,4.7619048E-1,-1.23043E-1,3.0420719E-2,2.7800117E-2,9.462569E-3,-4.1479614E-2,7.850211E-3,-7.00911E-3,3.3929253E-3],"split_indices":[11,6,1,8,0,2,0,0,1,0,10,11,9,0,0,0,0,0,0,0,0],"split_type":[0,0,0,0,0,0,0,0,0,0,0,0,0,0,0,0,0,0,0,0,0],"sum_hessian":[3.892365E4,7.497347E3,3.1426303E4,2.0304924E2,7.294298E3,3.1344947E4,8.135583E1,7.461626E1,1.2843298E2,3.9620327E1,7.2546777E3,1.4391937E3,2.9905752E4,2.4744602E1,1.0368838E2,1.6493672E3,5.6053105E3,9.019425E2,5.372512E2,1.2677659E4,1.7228094E4],"tree_param":{"num_deleted":"0","num_feature":"13","num_nodes":"21","size_leaf_vector":"1"}},{"base_weights":[1.659115E-2,5.2480116E-2,-3.7041643E-1,-1.3335696E0,5.725898E-2,-2.024276E-1,-1.0388054E0,1.3484105E0,-1.1213925E-1,6.1639488E-2,-7.25865E-2,-1.2402764E-1,-7.29131E-2,-1.1913848E0,1.9935597E0,8.065168E-2,-7.7163994E-2,2.1566923E-3,2.0635458E-2,3.0322779E-2,-1.2821386E-2,-5.436958E-3,-6.5954976E-2,-4.581431E-2,1.1072439E-1],"categories":[],"categories_nodes":[],"categories_segments":[],"categories_sizes":[],"default_left":[0,0,0,0,0,0,0,0,0,0,0,0,0,0,0,0,0,0,0,0,0,0,0,0,0],"id":45,"left_children":[1,3,5,7,9,11,13,15,-1,17,-1,19,-1,21,23,-1,-1,-1,-1,-1,-1,-1,-1,-1,-1],"loss_changes":[5.433324E2,2.3719672E2,3.7254382E2,3.0306763E2,2.359163E2,2.6115012E2,3.1077228E2,2.6805214E1,0E0,2.3109962E2,0E0,2.4188596E2,0E0,8.769159E1,2.2797638E1,0E0,0E0,0E0,0E0,0E0,0E0,0E0,0E0,0E0,0E0],"parents":[2147483647,0,0,1,1,2,2,3,3,4,4,5,5,6,6,7,7,9,9,11,11,13,13,14,14],"right_children":[2,4,6,8,10,12,14,16,-1,18,-1,20,-1,22,24,-1,-1,-1,-1,-1,-1,-1,-1,-1,-1],"split_conditions":[1.7127474E-1,4.480099E-2,4.6688798E-1,1.4E-7,9.235994E-2,6.388889E-1,7.567568E-1,-1.4685844E0,-1.1213925E-1,2.1935031E0,-7.25865E-2,3.529412E-1,-7.29131E-2,-6E0,2.7324972E0,8.065168E-2,-7.7163994E-2,2.1566923E-3,2.0635458E-2,3.0322779E-2,-1.2821386E-2,-5.436958E-3,-6.5954976E-2,-4.581431E-2,1.1072439E-1],"split_indices":[10,10,3,3,7,8,9,5,0,6,0,9,0,2,6,0,0,0,0,0,0,0,0,0,0],"split_type":[0,0,0,0,0,0,0,0,0,0,0,0,0,0,0,0,0,0,0,0,0,0,0,0,0],"sum_hessian":[3.9116367E4,3.5797562E4,3.3188057E3,1.22044365E2,3.5675516E4,2.6532554E3,6.655503E2,3.0776775E1,9.1267586E1,3.5573207E4,1.0230788E2,2.4983835E3,1.5487178E2,6.3424414E2,3.1306137E1,2.8601583E1,2.1751926E0,3.3793027E4,1.7801809E3,3.828004E2,2.1155833E3,6.7119484E1,5.671247E2,1.987063E0,2.9319075E1],"tree_param":{"num_deleted":"0","num_feature":"13","num_nodes":"25","size_leaf_vector":"1"}},{"base_weights":[-1.4283477E-2,-9.585159E-3,-1.3745378E0,4.29293E-1,-2.3224207E-2,-9.949395E-2,9.544838E-1,7.35034E-1,-6.572436E-1,-7.0472264E-1,-7.3992657E-3,6.659151E-2,-7.117834E-2,4.1229945E-2,-1.06344E-1,4.9961675E-3,-1.04907505E-1,-1.4668538E-2,-1.00983396E-1,1.9938184E-3,-7.670277E-3],"categories":[],"categories_nodes":[],"categories_segments":[],"categories_sizes":[],"default_left":[0,0,0,0,0,0,0,0,0,0,0,0,0,0,0,0,0,0,0,0,0],"id":46,"left_children":[1,3,5,7,9,-1,11,13,15,17,19,-1,-1,-1,-1,-1,-1,-1,-1,-1,-1],"loss_changes":[2.4566367E2,2.2933086E2,1.915231E2,3.8408597E2,4.007162E2,0E0,2.7315964E1,2.3286673E2,2.7744098E2,4.5550656E2,2.5066733E2,0E0,0E0,0E0,0E0,0E0,0E0,0E0,0E0,0E0,0E0],"parents":[2147483647,0,0,1,1,2,2,3,3,4,4,6,6,7,7,8,8,9,9,10,10],"right_children":[2,4,6,8,10,-1,12,14,16,18,20,-1,-1,-1,-1,-1,-1,-1,-1,-1,-1],"split_conditions":[9.655536E-1,1.59E-5,6.201407E-1,5.276515E-1,1.4331E-4,-9.949395E-2,4.817184E-2,9.1865766E-1,-1E0,5.217391E-1,1.3147813E-1,6.659151E-2,-7.117834E-2,4.1229945E-2,-1.06344E-1,4.9961675E-3,-1.04907505E-1,-1.4668538E-2,-1.00983396E-1,1.9938184E-3,-7.670277E-3],"split_indices":[1,3,0,0,3,0,10,1,2,9,10,0,0,0,0,0,0,0,0,0,0],"split_type":[0,0,0,0,0,0,0,0,0,0,0,0,0,0,0,0,0,0,0,0,0],"sum_hessian":[3.8440617E4,3.8309305E4,1.3131326E2,1.153739E3,3.7155566E4,1.03985344E2,2.7327919E1,9.00633E2,2.5310597E2,8.4221436E2,3.631335E4,2.396511E1,3.3628075E0,8.7399286E2,2.6640127E1,1.6652902E2,8.657695E1,6.424584E2,1.9975595E2,2.7431865E4,8.881486E3],"tree_param":{"num_deleted":"0","num_feature":"13","num_nodes":"21","size_leaf_vector":"1"}},{"base_weights":[2.0316513E-2,8.3485134E-2,-2.0302363E-1,7.586513E-2,1.3858263E0,8.421054E-2,-1.0098315E0,5.3378254E-1,5.3831294E-2,1.6258076E0,-8.291851E-2,-7.02829E-1,1.6128486E-1,2.418597E-1,-1.1719455E0,3.14179E-2,-1.0421925E-1,-5.210513E-2,3.4933134E-3,8.64683E-2,-7.604427E-2,-5.0492454E-2,5.0017934E-2,3.0498607E-3,3.7676595E-2,3.633132E-2,-8.552513E-2,-6.0024608E-2,-5.5910535E-2],"categories":[],"categories_nodes":[],"categories_segments":[],"categories_sizes":[],"default_left":[0,0,0,0,0,0,0,0,0,0,0,0,0,0,0,0,0,0,0,0,0,0,0,0,0,0,0,0,0],"id":47,"left_children":[1,3,5,7,9,11,13,15,17,19,-1,21,23,25,27,-1,-1,-1,-1,-1,-1,-1,-1,-1,-1,-1,-1,-1,-1],"loss_changes":[5.521702E2,3.0266345E2,1.9998358E3,3.0601892E2,1.3230542E2,3.861914E2,4.600149E2,3.4609247E2,5.08667E2,5.638324E1,0E0,2.9795764E2,3.443084E2,2.4790022E2,1.7348633E0,0E0,0E0,0E0,0E0,0E0,0E0,0E0,0E0,0E0,0E0,0E0,0E0,0E0,0E0],"parents":[2147483647,0,0,1,1,2,2,3,3,4,4,5,5,6,6,7,7,8,8,9,9,11,11,12,12,13,13,14,14],"right_children":[2,4,6,8,10,12,14,16,18,20,-1,22,24,26,28,-1,-1,-1,-1,-1,-1,-1,-1,-1,-1,-1,-1,-1,-1],"split_conditions":[1.493381E-2,2.8234363E-1,1.2043676E-1,3.719E-5,6.086956E-1,1.522728E-2,1.501186E-2,9.1865766E-1,1.4331E-4,8.802512E-1,-8.291851E-2,6.2068963E-1,1.1826997E0,2.0304509E-1,1.7127474E-1,3.14179E-2,-1.0421925E-1,-5.210513E-2,3.4933134E-3,8.64683E-2,-7.604427E-2,-5.0492454E-2,5.0017934E-2,3.0498607E-3,3.7676595E-2,3.633132E-2,-8.552513E-2,-6.0024608E-2,-5.5910535E-2],"split_indices":[11,10,10,3,9,11,11,1,3,1,0,8,3,3,10,0,0,0,0,0,0,0,0,0,0,0,0,0,0],"split_type":[0,0,0,0,0,0,0,0,0,0,0,0,0,0,0,0,0,0,0,0,0,0,0,0,0,0,0,0,0],"sum_hessian":[3.913636E4,3.0508178E4,8.628184E3,3.0331764E4,1.7641316E2,6.363566E3,2.2646172E3,1.3914188E3,2.8940346E4,1.639542E2,1.2458967E1,5.668718E2,5.7966943E3,2.5961588E2,2.0050012E3,1.3436427E3,4.777607E1,4.164071E2,2.8523938E4,1.591664E2,4.7877884E0,4.8063812E2,8.623373E1,4.958204E3,8.384903E2,2.0847891E2,5.1136967E1,1.2954508E3,7.0955035E2],"tree_param":{"num_deleted":"0","num_feature":"13","num_nodes":"29","size_leaf_vector":"1"}},{"base_weights":[1.7189745E-2,6.490602E-2,-1.5591672E-1,-1.7753561E-1,1.11890316E-1,1.45767E-1,-1.1234614E0,-6.529937E-1,1.3725913E-2,7.732688E-2,5.0691944E-1,-1.2007269E0,1.8532208E-1,-7.439161E-2,-1.1620897E0,-2.7221546E-2,-1.0253482E-1,4.3942994E-3,-7.2635226E-2,4.6875374E-3,-3.6330424E-2,3.0708266E-2,-6.761998E-3,-9.16569E-2,4.5368303E-2,-3.010591E-2,1.2300864E-2,6.8347655E-2,-7.2558425E-2,-5.9777655E-2,-5.5604782E-2],"categories":[],"categories_nodes":[],"categories_segments":[],"categories_sizes":[],"default_left":[0,0,0,0,0,0,0,0,0,0,0,0,0,0,0,0,0,0,0,0,0,0,0,0,0,0,0,0,0,0,0],"id":48,"left_children":[1,3,5,7,9,11,13,15,17,19,21,23,25,27,29,-1,-1,-1,-1,-1,-1,-1,-1,-1,-1,-1,-1,-1,-1,-1,-1],"loss_changes":[3.20825E2,3.4684787E2,2.4499917E3,4.49523E2,3.4820218E2,3.4103107E2,8.0759766E1,2.1405756E2,3.8359177E2,3.0975665E2,1.4139532E2,2.452955E2,2.9728897E2,1.4470168E2,1.8891602E0,0E0,0E0,0E0,0E0,0E0,0E0,0E0,0E0,0E0,0E0,0E0,0E0,0E0,0E0,0E0,0E0],"parents":[2147483647,0,0,1,1,2,2,3,3,4,4,5,5,6,6,7,7,8,8,9,9,10,10,11,11,12,12,13,13,14,14],"right_children":[2,4,6,8,10,12,14,16,18,20,22,24,26,28,30,-1,-1,-1,-1,-1,-1,-1,-1,-1,-1,-1,-1,-1,-1,-1,-1],"split_conditions":[1.498236E-2,1.069721E-2,1.2043676E-1,4.4444445E-1,1.474393E-2,2.4087E-4,1.501186E-2,1.0334133E0,9.75155E-3,9.4851184E-1,1.3891861E0,1.1574677E-1,1.522728E-2,2.81055E-3,5.611565E-2,-2.7221546E-2,-1.0253482E-1,4.3942994E-3,-7.2635226E-2,4.6875374E-3,-3.6330424E-2,3.0708266E-2,-6.761998E-3,-9.16569E-2,4.5368303E-2,-3.010591E-2,1.2300864E-2,6.8347655E-2,-7.2558425E-2,-5.9777655E-2,-5.5604782E-2],"split_indices":[11,7,10,8,11,3,11,3,7,1,6,10,11,3,7,0,0,0,0,0,0,0,0,0,0,0,0,0,0,0,0],"split_type":[0,0,0,0,0,0,0,0,0,0,0,0,0,0,0,0,0,0,0,0,0,0,0,0,0,0,0,0,0,0,0],"sum_hessian":[3.8838594E4,3.0446682E4,8.391912E3,4.942146E3,2.5504535E4,6.3978804E3,1.9940315E3,1.4170585E3,3.5250874E3,2.3453635E4,2.0509014E3,1.8174496E2,6.2161353E3,7.091962E1,1.9231118E3,1.3162146E3,1.0084388E2,3.3562937E3,1.6879385E2,2.2984951E4,4.6868384E2,1.7574384E3,2.9346298E2,1.39905E2,4.1839962E1,4.4420758E2,5.7719277E3,3.4650852E1,3.626877E1,1.1382892E3,7.848227E2],"tree_param":{"num_deleted":"0","num_feature":"13","num_nodes":"31","size_leaf_vector":"1"}},{"base_weights":[-9.494096E-4,-2.3877193E-1,3.3701397E-2,9.1508284E-2,-6.6517925E-1,3.8058504E-2,-8.393164E-2,3.5805517E-1,-5.6019205E-1,-2.0468237E-1,-1.1129186E0,-1.8446465E-1,7.136805E-2,-4.838354E-2,2.6248023E-2,1.7867442E-2,-6.2686525E-2,4.7367226E-2,-2.3224061E-2,-3.490585E-2,-7.85011E-2,-5.1278626E-3,-7.268458E-2,2.0269075E-2,1.4898889E-3],"categories":[],"categories_nodes":[],"categories_segments":[],"categories_sizes":[],"default_left":[0,0,0,0,0,0,0,0,0,0,0,0,0,0,0,0,0,0,0,0,0,0,0,0,0],"id":49,"left_children":[1,3,5,7,9,11,-1,13,15,17,19,21,23,-1,-1,-1,-1,-1,-1,-1,-1,-1,-1,-1,-1],"loss_changes":[3.168315E2,6.886476E2,2.5043155E2,4.7896252E2,4.398141E2,2.4812318E2,0E0,4.3346573E2,5.098019E2,3.1570352E2,2.0403638E2,